<?xml version="1.0"?>
<opencv_storage>
<opencv_ml_ann_mlp>
  <format>3</format>
  <layer_sizes>
    120 40 65</layer_sizes>
  <activation_function>SIGMOID_SYM</activation_function>
  <f_param1>1.</f_param1>
  <f_param2>1.</f_param2>
  <min_val>-9.4999999999999996e-01</min_val>
  <max_val>9.4999999999999996e-01</max_val>
  <min_val1>-9.7999999999999998e-01</min_val1>
  <max_val1>9.7999999999999998e-01</max_val1>
  <training_params>
    <train_method>BACKPROP</train_method>
    <dw_scale>1.0000000000000001e-01</dw_scale>
    <moment_scale>1.0000000000000001e-01</moment_scale>
    <term_criteria>
      <iterations>30000</iterations></term_criteria></training_params>
  <input_scale>
    2.8926680571679945e+01 -8.2703922205115452e-02
    4.0648551107202708e+00 -5.0690407723043274e-01
    3.1225790292029658e+00 -2.0653117468658482e+00
    4.3416152082174460e+00 -3.7679929250854722e+00
    4.1927397881059667e+00 -3.2424334118944285e+00
    4.4775608529280513e+00 -3.7192953618094360e+00
    4.3554363158268803e+00 -3.7104085599145256e+00
    2.9440673661281584e+00 -1.5121445208591102e+00
    5.8399032922995628e+00 -3.5534234942570903e-01
    5.1999489558260684e+01 -4.4334273105715277e-02
    4.1135077798601420e+00 -2.9962400899265371e+00
    4.7523345499109135e+00 -3.9330630119595149e+00
    4.3440242498370427e+00 -3.1821095271015079e+00
    4.4540814880061026e+00 -3.3686149357188300e+00
    4.8688258239650812e+00 -3.8693689302041041e+00
    4.7471794366933073e+00 -3.6880828808163275e+00
    4.3673312306016534e+00 -3.1237195242723970e+00
    4.6139067833863807e+00 -3.4497732277727899e+00
    4.5714555560754553e+00 -3.7163489828858429e+00
    3.6216932184369992e+00 -2.3130336876891513e+00
    7.2111142325555289e-01 -5.3356598566726483e-02
    4.6683166991215740e-02 -2.8565515178894763e-01
    1.3915597770179771e-02 -8.4531707165288161e-01
    1.1521067802783697e-02 -1.4219572199592752e+00
    1.0235855053398109e-02 -1.3821554786465469e+00
    1.0999630611981859e-02 -1.5826181114461850e+00
    1.1877300851657009e-02 -1.4206559079507888e+00
    1.6825340926432748e-02 -6.5383443191121704e-01
    6.2913379356224458e-02 -1.8189091829609716e-01
    6.0585252049653326e-01 -3.1584103990502280e-02
    3.9065040999739259e-01 -6.3333404637048271e-02
    3.0968413829957429e-02 -3.5397669421675387e-01
    1.1775663020949892e-02 -1.1430269471052852e+00
    1.1679881245295336e-02 -1.8342410024033866e+00
    1.1694512460365564e-02 -1.4496408942526824e+00
    1.2159885392011497e-02 -1.7732180204429706e+00
    1.1588143438649605e-02 -1.9138320492876522e+00
    1.3451536329646780e-02 -8.7694175946909669e-01
    4.5848002594387614e-02 -2.3563918676792098e-01
    3.7126415123876033e-01 -3.5882766357400488e-02
    3.6622498853506785e-01 -6.3701692828859319e-02
    2.9591126599430247e-02 -3.6364130402292877e-01
    1.1089279021293561e-02 -1.0932885774307497e+00
    1.1713953404138127e-02 -1.5820729405032135e+00
    1.0221149666742034e-02 -1.0356350902201146e+00
    1.0425893037386334e-02 -1.1781999951212381e+00
    1.1066322228818303e-02 -1.5993816434670876e+00
    1.2580573824044431e-02 -8.5926860776355907e-01
    4.4435710489631582e-02 -2.4704476572824613e-01
    5.4428320342813497e-01 -4.2048560995698800e-02
    2.9203407431669193e-01 -4.9441673689782160e-02
    3.0816983018613926e-02 -3.6445238422151238e-01
    1.1194411104298077e-02 -1.1353577578888625e+00
    1.1581953536844105e-02 -1.6813718117095100e+00
    1.0244266427487136e-02 -1.2171071667883595e+00
    1.0817450769128238e-02 -1.3538029441300938e+00
    1.0821563573643727e-02 -1.5123362635744573e+00
    1.2577968698605549e-02 -8.2178038111548435e-01
    4.5411677148209748e-02 -2.4065357243949406e-01
    4.8440538088768242e-01 -4.2813961666334457e-02
    3.0992330652705385e-01 -4.5425606448987771e-02
    3.3750833792006461e-02 -3.2509648837010396e-01
    1.1352271218119296e-02 -1.0329505002378396e+00
    1.0906122515322858e-02 -1.7202720001421647e+00
    1.1115940780071724e-02 -1.7372969409347376e+00
    1.1903406524177929e-02 -1.9999591498548506e+00
    1.1749506425637478e-02 -1.8084617601755093e+00
    1.3257068367360153e-02 -7.7111210739140323e-01
    5.1345708794254277e-02 -2.1105461500213649e-01
    5.8372570740817820e-01 -3.6144268715674603e-02
    2.6974029536805549e-01 -5.2444069172668271e-02
    3.3550374704376981e-02 -3.0322440415370810e-01
    1.1326565771189638e-02 -9.8427421293527551e-01
    1.1131766949127892e-02 -1.6690253190216724e+00
    1.1246426284023036e-02 -1.5327569442712425e+00
    1.1584588450671934e-02 -1.7846775825439412e+00
    1.1336296336732899e-02 -1.8070641587187257e+00
    1.2927506438085610e-02 -8.0378964605730652e-01
    5.0874134761629504e-02 -2.0459391833100068e-01
    4.8875722955021311e-01 -2.6737770424567559e-02
    2.5242462719621545e-01 -5.8997301752247711e-02
    3.1957718550641077e-02 -3.2723990122907387e-01
    1.1100530286031845e-02 -1.0281347047359091e+00
    1.1062494277564118e-02 -1.5130884560853861e+00
    1.0711741144168849e-02 -1.0539116061120075e+00
    1.0784566649929979e-02 -1.2536996175052590e+00
    1.0902792408969429e-02 -1.6293409814558870e+00
    1.2303072067793946e-02 -8.4320601266606210e-01
    4.6765348941627025e-02 -2.2740464705040297e-01
    5.8018088273880652e-01 -2.7616643671550645e-02
    2.1637201211888124e-01 -6.7435839188878410e-02
    2.9220506767209845e-02 -3.5156875599604248e-01
    1.1257938825287537e-02 -1.1662729149617164e+00
    1.1815729046565360e-02 -1.7236486027700697e+00
    1.0975698936503579e-02 -1.0959062699100184e+00
    1.0422772208224023e-02 -1.2167366079122699e+00
    1.0781910964311185e-02 -1.6068565216706161e+00
    1.2162214055852241e-02 -8.8100082158632942e-01
    4.5500109966999110e-02 -2.4856810365237200e-01
    6.6289673955977979e-01 -2.6795601240181061e-02
    2.0289462655925802e-01 -7.0296691778814854e-02
    3.0775312434457813e-02 -3.4694300342566731e-01
    1.1762761455898713e-02 -1.1489515202342442e+00
    1.1424523461495995e-02 -1.7795186310873305e+00
    1.2189563093423545e-02 -1.4922430968138436e+00
    1.2771329101658660e-02 -1.7217852712688113e+00
    1.0552554326312066e-02 -1.5978714945801691e+00
    1.3436508412679331e-02 -8.7488504371050213e-01
    4.8801196774320023e-02 -2.4196434447638676e-01
    4.8460564754751023e-01 -2.9268888080559458e-02
    2.8408145789179728e-01 -6.0072764786936399e-02
    4.6928213268653408e-02 -2.5841140406765895e-01
    1.4938080757346036e-02 -7.3344980068866550e-01
    1.1613555389169611e-02 -1.2071146480915513e+00
    1.0103282137629734e-02 -1.1856211111613757e+00
    1.0487369759020166e-02 -1.1623023701301591e+00
    1.2006322855184187e-02 -1.1049843218997208e+00
    1.7715517468898986e-02 -6.0829335096723935e-01
    7.3946001584882501e-02 -1.9434148002088375e-01
    5.3917414119849461e-01 -2.4863308715359817e-02</input_scale>
  <output_scale>
    5.2631578947368418e-01 4.9999999999999994e-01 5.2631578947368418e-01
    4.9999999999999994e-01 5.2631578947368418e-01 4.9999999999999994e-01
    5.2631578947368418e-01 4.9999999999999994e-01 5.2631578947368418e-01
    4.9999999999999994e-01 5.2631578947368418e-01 4.9999999999999994e-01
    5.2631578947368418e-01 4.9999999999999994e-01 5.2631578947368418e-01
    4.9999999999999994e-01 5.2631578947368418e-01 4.9999999999999994e-01
    5.2631578947368418e-01 4.9999999999999994e-01 5.2631578947368418e-01
    4.9999999999999994e-01 5.2631578947368418e-01 4.9999999999999994e-01
    5.2631578947368418e-01 4.9999999999999994e-01 5.2631578947368418e-01
    4.9999999999999994e-01 5.2631578947368418e-01 4.9999999999999994e-01
    5.2631578947368418e-01 4.9999999999999994e-01 5.2631578947368418e-01
    4.9999999999999994e-01 5.2631578947368418e-01 4.9999999999999994e-01
    5.2631578947368418e-01 4.9999999999999994e-01 5.2631578947368418e-01
    4.9999999999999994e-01 5.2631578947368418e-01 4.9999999999999994e-01
    5.2631578947368418e-01 4.9999999999999994e-01 5.2631578947368418e-01
    4.9999999999999994e-01 5.2631578947368418e-01 4.9999999999999994e-01
    5.2631578947368418e-01 4.9999999999999994e-01 5.2631578947368418e-01
    4.9999999999999994e-01 5.2631578947368418e-01 4.9999999999999994e-01
    5.2631578947368418e-01 4.9999999999999994e-01 5.2631578947368418e-01
    4.9999999999999994e-01 5.2631578947368418e-01 4.9999999999999994e-01
    5.2631578947368418e-01 4.9999999999999994e-01 5.2631578947368418e-01
    4.9999999999999994e-01 5.2631578947368418e-01 4.9999999999999994e-01
    5.2631578947368418e-01 4.9999999999999994e-01 5.2631578947368418e-01
    4.9999999999999994e-01 5.2631578947368418e-01 4.9999999999999994e-01
    5.2631578947368418e-01 4.9999999999999994e-01 5.2631578947368418e-01
    4.9999999999999994e-01 5.2631578947368418e-01 4.9999999999999994e-01
    5.2631578947368418e-01 4.9999999999999994e-01 5.2631578947368418e-01
    4.9999999999999994e-01 5.2631578947368418e-01 4.9999999999999994e-01
    5.2631578947368418e-01 4.9999999999999994e-01 5.2631578947368418e-01
    4.9999999999999994e-01 5.2631578947368418e-01 4.9999999999999994e-01
    5.2631578947368418e-01 4.9999999999999994e-01 5.2631578947368418e-01
    4.9999999999999994e-01 5.2631578947368418e-01 4.9999999999999994e-01
    5.2631578947368418e-01 4.9999999999999994e-01 5.2631578947368418e-01
    4.9999999999999994e-01 5.2631578947368418e-01 4.9999999999999994e-01
    5.2631578947368418e-01 4.9999999999999994e-01 5.2631578947368418e-01
    4.9999999999999994e-01 5.2631578947368418e-01 4.9999999999999994e-01
    5.2631578947368418e-01 4.9999999999999994e-01 5.2631578947368418e-01
    4.9999999999999994e-01 5.2631578947368418e-01 4.9999999999999994e-01
    5.2631578947368418e-01 4.9999999999999994e-01 5.2631578947368418e-01
    4.9999999999999994e-01 5.2631578947368418e-01 4.9999999999999994e-01
    5.2631578947368418e-01 4.9999999999999994e-01 5.2631578947368418e-01
    4.9999999999999994e-01 5.2631578947368418e-01 4.9999999999999994e-01
    5.2631578947368418e-01 4.9999999999999994e-01 5.2631578947368418e-01
    4.9999999999999994e-01</output_scale>
  <inv_output_scale>
    1.8999999999999999e+00 -9.4999999999999996e-01
    1.8999999999999999e+00 -9.4999999999999996e-01
    1.8999999999999999e+00 -9.4999999999999996e-01
    1.8999999999999999e+00 -9.4999999999999996e-01
    1.8999999999999999e+00 -9.4999999999999996e-01
    1.8999999999999999e+00 -9.4999999999999996e-01
    1.8999999999999999e+00 -9.4999999999999996e-01
    1.8999999999999999e+00 -9.4999999999999996e-01
    1.8999999999999999e+00 -9.4999999999999996e-01
    1.8999999999999999e+00 -9.4999999999999996e-01
    1.8999999999999999e+00 -9.4999999999999996e-01
    1.8999999999999999e+00 -9.4999999999999996e-01
    1.8999999999999999e+00 -9.4999999999999996e-01
    1.8999999999999999e+00 -9.4999999999999996e-01
    1.8999999999999999e+00 -9.4999999999999996e-01
    1.8999999999999999e+00 -9.4999999999999996e-01
    1.8999999999999999e+00 -9.4999999999999996e-01
    1.8999999999999999e+00 -9.4999999999999996e-01
    1.8999999999999999e+00 -9.4999999999999996e-01
    1.8999999999999999e+00 -9.4999999999999996e-01
    1.8999999999999999e+00 -9.4999999999999996e-01
    1.8999999999999999e+00 -9.4999999999999996e-01
    1.8999999999999999e+00 -9.4999999999999996e-01
    1.8999999999999999e+00 -9.4999999999999996e-01
    1.8999999999999999e+00 -9.4999999999999996e-01
    1.8999999999999999e+00 -9.4999999999999996e-01
    1.8999999999999999e+00 -9.4999999999999996e-01
    1.8999999999999999e+00 -9.4999999999999996e-01
    1.8999999999999999e+00 -9.4999999999999996e-01
    1.8999999999999999e+00 -9.4999999999999996e-01
    1.8999999999999999e+00 -9.4999999999999996e-01
    1.8999999999999999e+00 -9.4999999999999996e-01
    1.8999999999999999e+00 -9.4999999999999996e-01
    1.8999999999999999e+00 -9.4999999999999996e-01
    1.8999999999999999e+00 -9.4999999999999996e-01
    1.8999999999999999e+00 -9.4999999999999996e-01
    1.8999999999999999e+00 -9.4999999999999996e-01
    1.8999999999999999e+00 -9.4999999999999996e-01
    1.8999999999999999e+00 -9.4999999999999996e-01
    1.8999999999999999e+00 -9.4999999999999996e-01
    1.8999999999999999e+00 -9.4999999999999996e-01
    1.8999999999999999e+00 -9.4999999999999996e-01
    1.8999999999999999e+00 -9.4999999999999996e-01
    1.8999999999999999e+00 -9.4999999999999996e-01
    1.8999999999999999e+00 -9.4999999999999996e-01
    1.8999999999999999e+00 -9.4999999999999996e-01
    1.8999999999999999e+00 -9.4999999999999996e-01
    1.8999999999999999e+00 -9.4999999999999996e-01
    1.8999999999999999e+00 -9.4999999999999996e-01
    1.8999999999999999e+00 -9.4999999999999996e-01
    1.8999999999999999e+00 -9.4999999999999996e-01
    1.8999999999999999e+00 -9.4999999999999996e-01
    1.8999999999999999e+00 -9.4999999999999996e-01
    1.8999999999999999e+00 -9.4999999999999996e-01
    1.8999999999999999e+00 -9.4999999999999996e-01
    1.8999999999999999e+00 -9.4999999999999996e-01
    1.8999999999999999e+00 -9.4999999999999996e-01
    1.8999999999999999e+00 -9.4999999999999996e-01
    1.8999999999999999e+00 -9.4999999999999996e-01
    1.8999999999999999e+00 -9.4999999999999996e-01
    1.8999999999999999e+00 -9.4999999999999996e-01
    1.8999999999999999e+00 -9.4999999999999996e-01
    1.8999999999999999e+00 -9.4999999999999996e-01
    1.8999999999999999e+00 -9.4999999999999996e-01
    1.8999999999999999e+00 -9.4999999999999996e-01</inv_output_scale>
  <weights>
    <_>
      2.4247018926299493e+00 7.1687989775148842e-01
      3.5132767806835012e+00 7.0663371285800247e-01
      -1.5537969944261596e+00 -6.1354647902726167e-01
      -6.6454212018338799e-01 -6.0245879027590232e-01
      5.0741220191629022e-01 -1.6954401490839011e+00
      -1.4970057933970391e+00 -5.4013212446751069e-01
      -1.4186587331770166e+00 3.1770857520508941e-02
      -5.2343172443917174e-01 -1.5868116249460706e+00
      1.1991131970491711e+00 1.4260780086954918e+00
      -1.0858918610555011e+00 -1.0405930202188496e+00
      7.1186796950946163e-01 -3.6613581209061268e+00
      2.2899087334575954e-01 -7.7430808230429904e-01
      -1.8535068590058634e+00 -2.4628248257015906e-01
      4.0343772430242959e+00 -7.5060458601510630e-02
      3.8147315914641484e+00 -1.1889352063494207e+00
      5.6394068031815197e+00 -1.3419007886743117e+00
      4.6318695143617833e-01 1.7837379443753303e+00
      -3.7314095071901733e-02 -2.1333574801945931e+00
      2.3969394265904573e-01 2.4558514321491498e+00
      1.0936316595806566e+00 3.9004912392464341e-01
      -6.2536323042425812e-01 -2.5973745277582921e-02
      2.8825759420589486e-01 2.0541913214428331e+00
      3.6398287931081330e+00 3.6064443133958028e+00
      -5.0996324811377314e-01 -8.3089435694368419e-01
      -3.3911362902095302e-02 5.6620598573314640e-01
      -3.8501721393091093e+00 1.5035179526297537e+00
      -9.6547143614531317e-01 2.1460163864839661e+00
      -1.7027360040682998e-03 -2.6289121655717251e-01
      -1.2539052966566759e+00 -1.8703889158029854e+00
      6.1002336962000980e-01 -1.1661880579111974e+00
      2.3324769627888768e+00 -7.5074923674241434e-01
      5.4904823806995784e-01 4.2908473329426039e-01
      1.3776120930544997e+00 -3.4681176962863169e-01
      -5.5016224420429305e-01 -1.2370807351813913e-01
      -9.9405002185066571e-01 4.9239451774668769e-01
      -6.0587963140513235e-01 -1.8175141647658843e+00
      9.5039489884426370e-02 6.3743591796760191e-01
      -1.1730085995481470e+00 9.6691596109659883e-01
      -2.4488781633258463e-01 -4.4481840083382483e-02
      -3.2479189303388539e-01 9.3382741288184457e-01
      6.9483063944320902e+00 -3.1466639977697666e+00
      1.3071111960930843e+00 6.3666151506852153e-01
      -1.5337420157269956e+00 1.4274075756461926e+00
      -9.2229808554941506e-01 -2.0904631300428438e+00
      2.6576653689770718e-01 3.2970254119706061e-01
      -2.9670849342481087e-01 -2.8938869774351130e+00
      7.6565614333947918e-01 1.5669831389316020e+00
      1.2502764811884490e+00 -1.1277489526710021e+00
      2.4272686421692260e+00 1.0896093066386370e+00
      5.7241563485331803e-01 1.7180490131270343e+00
      1.5055743307911760e+00 1.5780822393009379e+00
      -2.7315233454488663e-01 1.4268626103705260e+00
      -2.0699377333385156e+00 -2.0289537517940652e+00
      2.8958871811709699e+00 -7.2941817434694478e-01
      3.4183214759235980e+00 6.3603192281271337e-01
      3.2736836174020079e-01 1.4712878653433707e+00
      -1.5602163472878954e+00 2.9116788734727441e+00
      -1.4124876582902079e-01 3.9325108168894618e-01
      4.6670115805211881e-01 8.5991426404545671e-02
      -1.0441411909314113e+00 -1.5462708159824949e+00
      8.2862796712782516e-01 2.0387415449549193e+00
      1.2020248403535185e+00 -5.4534819776797627e-01
      2.1913195692588952e+00 1.8154436452261091e+00
      3.5445552004594044e-01 2.9742275448294007e+00
      -1.8357456931898544e-01 -4.1117133349141213e+00
      1.2677980801699209e+00 -2.3254953334815922e+00
      -2.4757578168629402e+00 1.8251470516932424e+00
      4.0008014403526495e+00 -3.7755043414454454e+00
      3.9333435330908717e+00 2.3462387628713604e+00
      1.3336936341676122e+00 3.9350782619779525e+00
      -1.4836366404250529e+00 -7.4807211268095197e-01
      2.3745857208635219e+00 -3.1931157211538062e+00
      1.2980280237744575e+00 -2.1069923852005896e+00
      5.1790518484641943e+00 1.4130856148867972e+00
      1.6210091985573027e+00 -4.6239900246429446e+00
      -5.1530239409186829e-01 1.5975669160159396e+00
      -2.8485203300428914e+00 1.2860203151415335e+00
      7.8680820902647264e-01 3.0664998969909107e-01
      2.0575995632467388e+00 3.6352686190873920e+00
      -3.0669832655854246e-01 4.4987525185191863e+00
      -3.8812297608492501e+00 1.8347605184077462e+00
      4.0543662247373191e-01 -5.6079375853317648e-01
      -7.9164491708962170e-01 8.5895992439558111e-01
      2.0849222372966550e-01 -6.2698968292291024e-01
      -1.6034612126309897e-01 -2.8644457238980836e+00
      -1.5407370027091840e+00 -5.5149033489343049e+00
      2.2435279006369555e+00 3.2691212928364579e+00
      4.2244646883451686e+00 -5.4434070711558205e+00
      1.4634296889831966e+00 1.7319089113039954e+00
      6.2955969569047798e-01 -1.1472354914136702e+00
      7.1629371333685299e+00 -8.4853333756283800e-01
      1.3003274073998836e+00 -3.6889613925954645e+00
      5.5076108852848060e-01 -2.8277419105158659e+00
      2.2483420063364568e+00 -8.9780908747826038e-01
      1.6303351882848600e+00 2.9144561886483014e+00
      -1.8032019909048516e+00 -2.4939091424898359e+00
      -2.1262570139608656e+00 -3.8164457092469144e+00
      3.3378909605561025e+00 8.6240795100278789e-01
      1.2062924508046844e+00 3.6596181451022441e-01
      -2.4418789270369415e-01 1.1217595487148810e+00
      -6.3980385005123463e-01 3.5083105844031155e+00
      1.7460371136097357e+00 -4.8071257358166863e-01
      -6.3991284593141518e-01 -1.6959141679067564e+00
      1.7244226394051181e+00 -1.0590996280504754e+00
      -2.9222836310941996e-01 -4.6305607690947674e+00
      -1.7207994679674137e+00 -4.9297705871012383e+00
      -4.1075370811183509e-01 5.1590158320055854e+00
      3.0276410248880854e+00 -1.3756540957004715e+00
      1.5444681618491576e-01 1.8758365393428195e-01
      1.7815865309009817e+00 2.6033433821095082e+00
      7.4329002590721620e+00 -3.5658672652258161e-01
      2.2637502484357781e+00 -5.5989468483015288e-02
      -1.5741093410428992e+00 2.1778191733272116e+00
      3.9614522930901410e+00 -1.2166502395589360e+00
      -6.5203007294367921e-01 2.4958251777506515e+00
      -3.4619370532196010e+00 4.6685877014512989e-01
      -1.0065308976469210e-01 -3.6166260017874458e-01
      -3.3359229759207487e-01 3.1108653478018894e-01
      2.3670686983732261e+00 1.2732050362175895e-01
      -6.4415936519638728e-01 1.7404476329239720e+00
      2.0487630528993468e+00 1.7969610829491105e+00
      1.3040805677877063e+00 6.4486906566873547e-01
      6.2512149872388498e+00 -1.4688708222279678e+00
      -2.9989851444609799e+00 3.5960750889226580e+00
      -2.7433578353607535e-01 -5.7364489624983852e+00
      2.5975869604563240e-01 -2.1807572629576670e+00
      -2.6683264286609694e+00 -1.5661187221586383e+00
      6.8560070912153104e-01 -2.0164728231520987e+00
      -5.4954535289125306e-01 -4.3963674773977068e+00
      -5.3541257369488333e+00 4.6865531542677772e+00
      1.4279861001523078e+00 -2.7586696637104811e+00
      -1.6719241285796247e+00 -9.1367318586770618e-01
      1.7387693377334394e+00 4.8357302124107697e+00
      6.0703310947117348e+00 -5.5604904736385097e-01
      -9.7487412113530425e-01 -4.0222045440195888e+00
      -4.8889543425923365e-01 9.7727505547873239e-01
      8.4729717570208218e-01 2.2665405387491675e+00
      4.3935047634865718e+00 5.2635877416671098e-02
      -1.3191885802516552e+00 2.0789581677328832e+00
      -4.5923275621828130e-01 -9.6825604075438010e-01
      4.4164577238956229e+00 5.7497519136285669e-03
      4.5208229449827222e+00 -2.5322376685631052e+00
      -2.3401061112238151e+00 -1.6015926344122944e+00
      -1.7990886890822850e+00 1.2009760161657936e+00
      -4.8350385533803308e-01 -2.3484391012865893e+00
      -6.3508813961590371e-01 -2.1715553984696214e+00
      2.8518206525484548e+00 5.0410783801528469e-01
      4.3068593175324983e+00 -1.4380616105741502e+00
      -6.2308146744028625e-01 -3.4289926406769644e-01
      3.4149231893419980e+00 -8.8372245930517512e-02
      -1.9735288985308089e-01 -4.5552828499529419e+00
      2.5735018514503820e+00 -7.6548572392749292e-01
      -2.2079955148167682e-01 -1.7200949078221675e+00
      1.1636542772484399e+00 -1.4058110181314926e-01
      -5.0595159214375718e-01 -7.4068460528353725e-02
      -1.0373972913747900e+00 1.1831406218661389e+00
      -2.2421202473031991e+00 1.4721328913849181e+00
      -1.8295697175941464e-01 4.8581545066395715e-01
      1.2525393182845090e+00 2.1048707870687240e+00
      -3.9954173715251097e-02 -8.8839126693150527e-01
      5.3183033880475261e-01 9.3788599643460679e-01
      3.4320860539238845e-01 -6.0282157354060739e-01
      1.7188956699529985e+00 1.6622289679715363e+00
      -2.0886713858518089e+00 -3.2838078189492297e+00
      5.1040795834815300e-01 1.7631658666490662e+00
      1.0509906689203981e+00 8.5045420369016533e-01
      1.4195451406691975e+00 8.2549294733850997e-01
      -7.3377705044183139e-01 1.4084517129219933e+00
      -4.9302433452619876e-01 -3.7468952484194112e-01
      -2.8317014385050188e-01 5.6479793482282326e-01
      -1.0982173120578429e+00 2.5752092711203725e+00
      -2.8227737887693960e-01 -1.3074816108173100e+00
      2.9266956925163741e+00 -1.6672470594942798e-01
      -4.3736782107501981e-01 -1.0262342891933167e+00
      2.0776104862581977e+00 -2.9209331943754174e-01
      -3.6128912594346335e-01 6.6058201065333311e-01
      2.2388858661699432e-01 1.4070424195968190e+00
      3.0869413984357758e-01 -1.0804038564232836e+00
      2.9351678071613629e-01 -8.5834239801650403e-01
      -2.4061147281014142e-01 2.1144268472704497e+00
      1.1278538374558704e+00 2.3315329812057008e+00
      1.3825801860128859e+00 1.7595916784115595e+00
      -1.7981592069646937e+00 -4.5294216745202504e-01
      1.7919792078485069e-02 -1.2561962901434849e+00
      2.3878060602840062e-02 -1.5202566871586112e+00
      -7.3221726132668519e-01 -5.1020487615209706e+00
      -1.3126902594062204e+00 -1.2572436724992724e+00
      -1.2250447066819148e+00 -9.4690086517931416e-01
      1.0197318303706169e+00 3.0761680863234235e+00
      1.4460917878458597e+00 -2.5930056311562990e+00
      1.3758202934291976e+00 9.1749473560197015e-01
      -4.7676790142809661e-01 -2.4123343511293704e+00
      -9.9900211395648753e-02 -9.6766044317240252e-01
      -7.3267378134513017e-01 7.5358059014840351e-01
      -1.0035573788006620e+00 1.0848123899761120e+00
      -1.9608693480205248e+00 4.4144063918091403e-01
      -2.0625511843427535e+00 1.6277309472124784e+00
      -3.0801473963231801e-01 -1.0929238019225261e-01
      3.6575407002393181e+00 6.8856181448445231e-01
      1.6570166312148282e+00 2.7148854279072552e+00
      -1.1110522524196436e+00 -3.5140275684205156e+00
      -1.7003492277484145e-01 1.1160773781614848e+00
      -1.0215508326579055e+00 5.6135117242549548e-02
      1.9684085035992829e+00 -1.0078586137587680e+00
      3.6264197634265784e-02 -9.1621440416974909e-01
      -5.6397653488774346e-01 3.1431976625021409e+00
      -3.5112145012436513e+00 -9.0380367357254365e-01
      5.9558295461011113e-01 5.1228297016497927e-02
      -5.8277956140676279e-01 9.7062730600763605e-02
      -2.0224668361413811e+00 1.2804863975059093e+00
      -1.9456244731224581e+00 2.5035260376852011e+00
      -7.7164323143175895e-01 -1.1486505859704519e+00
      -9.4453363668300572e-01 9.4729476004025800e-02
      -9.1938935325694571e-01 3.3033207913912035e+00
      8.9464188110482434e-01 -1.9505287301240068e-01
      6.4361423077186597e-01 2.2144580371831704e+00
      -3.0140800513535015e-01 1.1246961878405057e+00
      -2.0197032659474203e+00 8.9941067386971285e-01
      6.9402452091314959e-01 1.8220275788165210e+00
      -1.4690052641499166e-01 4.4205411822153173e-01
      -1.4929976848220805e+00 -1.6639318693512677e+00
      1.6744888450150941e-01 -6.9628574706225910e-01
      6.1791632010585469e-02 -1.7012189504163473e+00
      7.3395611363914959e-01 -4.5429455670665564e-01
      -8.2310202422583811e-01 1.5721207043857308e+00
      5.9693237936898924e-01 4.4232424714580416e+00
      -7.7433926325673819e-01 -1.6888810516600918e+00
      -1.9802775912020465e+00 -2.3836357809497333e+00
      1.0070611035971173e+00 -4.6861946531299874e-02
      -1.7420408177400251e+00 -2.5603662180052549e+00
      -6.6811091108808620e+00 -7.2060410727381574e-01
      1.2369561787606578e+00 1.1764199497383698e+00
      1.1729699987676385e+00 2.0103121885751896e+00
      5.8433497306652850e-02 3.6232757374187639e+00
      -2.4199064928667435e+00 1.6795787384426319e+00
      2.0661857740659735e+00 -1.6654303946935349e+00
      8.6970106721742435e-02 -4.5299293523693207e-01
      1.6897075148848315e+00 -6.2787862428396578e-03
      -7.3842283930631569e-01 1.2332257444072618e+00
      -3.7425787410786698e-01 -1.7428436706247080e-02
      -1.6086309174756646e+00 -9.7039194810805696e-01
      -7.2420116743487239e-01 9.2142750001001736e-02
      -1.0038443232660532e+00 7.3507160181663556e-01
      6.3007668925949767e-01 -1.2077656725759758e+00
      3.8371999530545639e-02 3.8937822151409387e+00
      1.3587123556614591e+00 2.5126541291131002e+00
      -7.1732980775035182e-01 1.3260399010635915e+00
      -1.1879411903358552e+00 -3.3570619969314270e+00
      2.5380281133785454e+00 -1.8667443890365640e+00
      -4.7899410268467218e-01 -3.9265781123832597e+00
      -3.4142069737422895e+00 -4.1322223990885448e-01
      1.2161841483968390e+00 1.2465233812415877e+00
      2.4133097889655644e-01 -1.1777309736585091e+00
      -8.8641760557126681e-01 4.6427456873309083e+00
      -1.1855619464598193e+00 -1.7706568699148812e+00
      -1.5175440255859238e+00 1.8900995768137623e+00
      3.7921206755261632e+00 -1.4850375844641112e-01
      2.0455339410592317e+00 2.0696714684792064e-01
      -1.7681931583845976e+00 -2.6321857355264844e+00
      -2.1881990854150152e-01 2.3246631662428401e+00
      3.2560664984985763e+00 -3.7829530382858700e+00
      -3.5248477653373524e+00 -2.6629626875965884e+00
      2.7046882249956501e+00 -1.5725202382652637e-01
      7.9867424310194912e-01 -8.9788862137145142e-01
      4.5335910996884710e-01 -8.8323235787978949e-01
      -4.7430702710967787e-01 -1.9853874294297098e+00
      1.3112358344933888e+00 -2.3648191897230633e+00
      -2.9727072213667993e-01 -6.3891742560880322e+00
      3.1048266023272513e+00 1.1163263088303852e+00
      -1.7763631867207790e+00 -7.5383082022038628e-01
      9.0568390698716389e-02 1.1842882454068526e+00
      9.0329660314737525e-01 2.2698944025921723e+00
      1.0608257938472188e+00 -3.2279645396190091e+00
      3.9514565616914519e+00 1.5899800142052063e+00
      2.5762463386106229e+00 -6.6065960058328332e-01
      6.3355750510402531e-01 -2.8733289891203810e+00
      -2.2008166341565194e+00 -7.3545605253426162e-03
      -8.4549272074276538e-01 -4.6475022261489757e-01
      -7.3128444418119332e-02 6.1248790753260451e-02
      3.8667691631547985e-01 -5.6262730898291824e-01
      2.0679054598311817e+00 -3.9712145655037059e+00
      -2.2811025826284295e-01 9.1229156994480712e-02
      3.2433018583048661e+00 -9.6881067912942698e-01
      -1.4465907373382629e+00 -2.9214337760117761e+00
      5.4386887681958618e-01 -3.2461822289966999e+00
      -1.6235712165153158e+00 -2.1125978582687748e+00
      -2.5310355964724516e+00 -4.1422514324976571e+00
      -3.0393878067246427e+00 -3.3406400880729836e+00
      1.7555734081808154e+00 1.6281747477181518e+00
      1.9301261667804331e-01 3.5645208768663600e-01
      3.3200810222140551e+00 5.8363565873979628e-01
      1.1519194797204764e+00 1.5842001121791560e+00
      1.8371151132500541e+00 -3.4399208198441028e-01
      1.4109959202510503e+00 -2.9002434213933856e+00
      5.3250177346045580e-01 -1.9125533776688657e+00
      -3.7308638150571505e-01 -8.4084661770404945e-01
      -8.6689897708441765e-01 -2.4692082591756765e+00
      7.6373163378132836e-01 -6.3936710063121760e-01
      -4.4975225495049698e-01 1.9894032554078469e+00
      -3.5295293329358096e-01 8.2515513263364593e-01
      -1.0718790560100877e-01 4.8433747507913782e+00
      2.7412427045676030e-01 1.9193140002539957e+00
      4.0018049832581788e+00 -8.5064321477280425e-01
      -3.5184252557208767e-01 -1.5931159314989822e+00
      -7.9114807718539126e-02 -3.0677261608077142e-02
      1.0590088526249923e+00 -1.7424859644575852e+00
      -2.5469721691497360e-01 1.4890541307852918e+00
      -3.8057823994406820e-01 -1.2420892898319638e+00
      -5.2972386488893475e-01 5.6851217182954739e-01
      2.1107454461090742e+00 3.4164141787820319e+00
      8.1662358269869029e-01 -2.1570789909732300e+00
      -2.0127687363335651e+00 2.3882784783473978e+00
      2.4179667242751042e+00 -1.1294126143830929e+00
      1.1350971816916926e-01 -1.5149515342720159e+00
      -1.0499306878633625e-01 -1.5583671729642632e+00
      -1.2476950669345412e+00 -2.9155291874532976e+00
      -1.3062939827117399e+00 6.9045833106612775e-01
      -1.2150054097398619e+00 -4.5204101114695416e-01
      1.0664804740177984e+00 -1.0716083761149819e+00
      -1.0523727936906364e-01 -2.2222562383099085e+00
      -4.4998567192245122e+00 3.0728788496573576e+00
      4.6293957158284260e-01 -4.5651654300515471e-01
      1.0452544770688921e+00 4.8295533465508561e-01
      -3.3757896892403944e-01 2.4564963604677512e+00
      -2.2806596985397024e-01 -1.9324201273312267e+00
      -1.8412859166149724e+00 2.4345874275242698e+00
      -5.1847740423163546e-01 -1.1709112049184185e+00
      6.6964352713676989e-01 -4.6368111693739994e-01
      2.7106119966996616e+00 -3.2486242389139095e+00
      1.1285894574689463e+00 -1.8183688133828004e+00
      2.8875715292740662e+00 2.6253369351345133e+00
      -3.9380539767941869e+00 -5.3515616485706519e-01
      -1.7134745661488693e-01 3.8556607067347720e-01
      -1.2748527592685366e-01 1.6971112416210441e+00
      2.2521061232463429e+00 2.8430572950657167e+00
      -9.5697771299261147e-01 -1.6562980841796517e+00
      6.6746427064565805e-01 1.2733658111237143e+00
      2.7348685355541549e+00 2.1061549523671147e-01
      8.6704367230517931e-01 -1.6965793274948993e+00
      6.1436315107580508e-01 2.1158399332071332e+00
      -2.0325457197378163e+00 5.1014036637970097e+00
      1.1161883873588117e+00 8.5588754509625597e-01
      1.5813551626496580e+00 2.2036093267443739e+00
      1.0548681807518225e+00 1.4237087664080750e+00
      5.7572249076793858e-01 -8.6958011563145976e-01
      1.1598515271354588e+00 7.5133975446853740e-01
      -1.6605019563532064e+00 -3.1439816746372085e+00
      2.1848217718908893e+00 5.6752709569980482e+00
      1.6110110786283779e-01 -1.3477751811006256e+00
      -8.9171722791396557e-01 9.3199401518422942e-01
      -4.6873947766939994e-01 1.9854419305050601e+00
      -1.1141264078422828e+00 -1.8281029974647860e+00
      3.4030998593845070e-02 -2.2054755248851965e+00
      7.5655920012620470e-01 5.0773374596552057e-01
      1.0990332579906030e+00 1.7113402830274247e+00
      2.1726935528846567e-01 -5.6087804178921097e-01
      9.3582634662450848e-01 2.7010126026759171e+00
      2.0191312299429045e+00 -2.6111187892067617e-01
      9.0184991129074032e-01 -3.3652558866800897e+00
      2.9528072200515526e-01 -2.2552591223438226e-01
      1.6940186903189007e+00 4.3775854932688398e+00
      9.6001212532630431e-01 1.2557569183810349e+00
      -2.1438081630083339e+00 -6.0493100521646004e-01
      -4.8211541533105629e-01 3.7641138672277075e+00
      1.5990341347896916e-01 -9.9314415970406422e-01
      9.9954618493743097e-01 -2.9993568872789989e+00
      -2.1807666692818342e+00 -9.8778653102182490e-01
      -7.7679517141384125e-01 3.1785222626884959e+00
      -1.6935908138814804e-01 -1.3948361317817740e-01
      -3.2880814637422934e-01 -2.2482768286730304e+00
      8.1798955514670302e-01 2.1856679309533695e+00
      -2.8381738533992609e+00 2.7885419489876599e+00
      1.2333065313113296e+00 -2.1554139298662198e+00
      9.7406552433607863e-01 2.9860344364015425e+00
      7.6094809756751136e-01 -1.1649472578824722e+00
      -1.4282234341066906e+00 9.4195877561022556e-01
      -1.6157594592188407e+00 7.5953727719253656e+00
      1.3305370055080501e+00 3.9474979208185668e-01
      2.1665928380244863e+00 -9.7590461429714093e-01
      -2.8743091688762584e-01 2.2707077186903205e-01
      -1.5068056221337006e-01 1.6426273030985348e+00
      2.9457320014026195e-01 3.3418985528874973e-01
      1.1121330081264396e+00 -1.2994202366760763e+00
      -6.6762360751453809e-01 1.9906467958013805e+00
      -6.1238643460837450e-01 -4.2630975016857692e-01
      -2.8375933209160529e+00 1.9100427189708069e+00
      -1.1747702828954765e+00 -2.5317177089141949e+00
      -4.2856028403853008e-01 -1.8811662293437115e+00
      -2.8329428093108535e+00 1.3573758813361751e+00
      -3.1741064126804233e+00 -6.7050455822360966e-01
      -1.2293451993487965e+00 -1.1721619578809381e+00
      -1.5582520103687223e+00 3.2153791107468512e+00
      -2.6302228817181779e+00 -3.5046525597145735e+00
      3.2493682806012809e+00 3.9598580408577067e-01
      2.6291191567545984e+00 2.0123401159942595e+00
      -9.4655234167238486e-04 -2.3923010967326839e+00
      -3.4023767906154996e+00 8.9095472326315234e-02
      2.4440728390843609e+00 -2.4615033524753033e-01
      -4.6006318755041636e-01 5.1495869141296702e-01
      -5.2582673914594413e-01 -1.3508005227998654e+00
      -2.2439209309313464e+00 1.7550124832175276e+00
      2.7553276928848760e+00 4.3376570220520847e+00
      2.4441305676605674e+00 -3.3821193350340515e+00
      -5.7945405138717661e-02 -4.7803211489819758e-01
      -2.6315782437255714e-01 1.8051108628209880e+00
      -1.9955956000762900e+00 -3.9888263486567604e-01
      -2.1729692390070052e-01 3.8354991657449591e+00
      -3.2374206645696263e-01 -1.1080352064533570e+00
      1.3160243864640018e+00 8.8490491927530768e-01
      -3.0742147796724009e+00 -6.6687115788678641e-01
      3.3913234882352900e-01 -2.0739696274065760e+00
      -1.3093983141093111e+00 -8.3204254424489221e-01
      -2.1516772026998319e+00 -2.1373478731542721e+00
      -5.9578067481067309e-01 1.3362417601273249e-01
      1.3750098445228220e-01 9.8899477642426289e-03
      -2.2050370740353475e-01 -3.6237837692063444e+00
      -1.0505235098697217e+00 -5.5407370611069462e+00
      -3.2517589846337538e+00 -3.4799302304239133e+00
      -2.2002431161399824e-01 1.4782522322444371e+00
      6.2210001028280226e-01 -3.1196130644349092e+00
      -2.2541803240950195e-01 2.5508258915863430e-01
      9.8991736402621555e-01 1.3409486777835642e+00
      -5.6816310519368018e+00 -6.3585010917869911e-01
      -1.0590823444979123e+00 -1.0348961718537755e+00
      7.9970910366193537e-01 1.2996019656905353e+00
      -2.1282223861927845e+00 -5.0547659933500001e-02
      -5.9193238069143991e-02 4.3535318932420342e-01
      6.5372703613099536e-01 -6.1672835682494752e-03
      1.1140333678162275e+00 4.5509914894821646e-01
      -3.2508095482115564e+00 5.5796090102103768e-01
      7.9789463642227176e-01 -5.3560616467796307e-01
      -1.8512037476991827e+00 1.2965385557926601e-01
      -1.8699165050197668e+00 1.7989653945344134e-02
      2.7129252312921015e-01 1.3187176916036576e+00
      -6.2955078158676281e-01 -1.5755095014383436e+00
      -1.5428800697526481e+00 -4.3990782370633162e-02
      -7.7907208348999402e-01 -1.5760539843458661e+00
      1.0202229618896437e+00 -9.2472884058083149e-01
      2.2939367527729662e+00 1.4554560830344665e-01
      -1.1874370790119274e-01 -1.0944696437189756e+00
      -6.1676409512532747e-02 2.3650350467790129e+00
      -1.9361111577775147e+00 -9.6953441513301331e-01
      -6.1310117165929912e+00 2.2444879531315370e-01
      -1.5777540922301376e+00 -3.5336913205563508e-01
      3.5393957589276714e-01 1.1490881749639466e+00
      -1.5272350399666161e+00 4.3368313143330051e+00
      8.5621691951309842e-01 -6.8092698133856919e-02
      1.6051643051490672e-01 -2.5864119965017927e+00
      -1.9678298638049843e+00 -1.3654070708081520e+00
      -3.1744051215022133e+00 -3.5408032195940167e+00
      9.7121169956962095e-01 1.6798403789309990e+00
      2.7139371437358903e+00 6.0791346608124075e-01
      -2.2409611869763876e-01 -1.2113660470760677e+00
      1.7305644119407917e-01 3.3605626859861641e+00
      1.6020692410425512e+00 1.2257960881446879e+00
      -1.7377327597326495e+00 1.9314795821602373e+00
      8.9900163628905516e-01 -2.2616696892504415e+00
      -4.4988379758780672e+00 -2.2424059280604239e-01
      2.7412277845845909e+00 1.6168580862251885e+00
      -1.7772433307285646e-01 1.3058251855275727e+00
      6.2589849316709856e-02 1.6163302931934292e-01
      2.7770942316368230e+00 -2.9660040673518062e+00
      -6.4972514819582123e+00 2.0935936547808702e+00
      1.1987792624745484e+00 1.1678829467673066e+00
      6.7200881835227000e-01 -3.4879762104077945e+00
      5.9202787448355689e+00 -1.7530541961754846e+00
      -2.2360628836936580e-01 -4.8355554413846806e-02
      -2.6286980446473612e-01 -7.1616100286098439e-01
      1.6176321291428347e-01 -3.0150765884452295e+00
      9.6935625799900116e-01 1.9660216787683247e+00
      -9.3593656398574132e-01 1.1892661024443811e+00
      2.4512315364747166e+00 5.0317935708187422e-01
      -4.7098550696145031e-01 -3.6565261294369700e+00
      2.4568597763822336e-01 2.3446211621152857e+00
      1.4189676943866290e+00 7.5649787901174292e-01
      7.8825460397998259e-02 7.9495539212200239e-01
      2.6524233458561399e+00 -7.5598725671831857e-01
      2.3963104510775040e+00 3.0245984434768752e-01
      2.1678665282231742e+00 1.4122901796218448e+00
      -5.1940769321317325e-02 2.2437397210806842e+00
      5.2728519507115623e-01 -4.6900025636391893e+00
      -2.4653372128553599e+00 5.7004349024099854e+00
      3.3913478215060922e+00 -4.3758546595548680e+00
      -5.7894109675918426e-01 -1.0252338276489388e+00
      -9.8367288296388924e-02 2.3290739721971767e+00
      2.6974302041428250e-01 -7.5217270251915103e-02
      -1.6962585154686302e-01 2.5331852401846233e+00
      -5.2793768818239739e-01 1.4960404840940149e+00
      1.1085778574547773e+00 -5.4481704593165334e+00
      5.4655535017903212e+00 6.4913469617841546e+00
      1.6103349356992494e-02 3.3502582713786864e+00
      6.9336429682386118e+00 3.1408036869553446e+00
      -7.6250653264879258e+00 4.7965136353775262e-01
      -1.7045600268531609e+00 -6.7895654354142252e+00
      3.5384503362593973e+00 -3.6439180438315764e+00
      3.1379817406263388e-01 -1.3388103762074874e-01
      2.4125467289033445e-01 -3.8364499014415610e-01
      3.6041745712794500e+00 -2.4347752308393494e-01
      -1.3596904029984058e-01 2.6839049896209932e+00
      4.1164751894513724e-01 -8.0529597109180351e-01
      1.7114003762614194e+00 -2.6838403503096955e+00
      4.6962437300165355e-01 5.2680897698735807e+00
      2.9979363812617804e-01 -1.4409249274662739e+00
      1.4437598463412902e+00 5.6809158595144049e-01
      9.4493859217951847e-03 2.9463662804060862e+00
      5.1175101309050062e+00 -3.9230392247517822e+00
      -3.7187615557234501e+00 -4.4514506264747605e-01
      1.9455435997418924e+00 2.9085725799834181e+00
      1.9041341831081136e+00 1.9576188687564937e+00
      5.2632178652529209e+00 2.3368671298048236e+00
      1.6543914760641591e+00 -2.3115420627409886e-01
      -4.3525694359955676e+00 -5.4240709192276360e-02
      -3.5065509181752241e+00 -3.2695101140963240e-01
      -9.4889278453716897e-01 -5.6211943439585310e+00
      1.1771039547514204e+00 -1.6410365935242626e+00
      -2.1148420770109153e+00 5.9403350990135939e-01
      1.1986226804636302e+00 7.2523011194718690e-01
      1.2995027723184751e+00 1.7573249862839743e-01
      -3.1185798684223545e+00 -8.1297227601478650e-01
      1.7678839117995818e-01 -5.2485642409807021e+00
      -7.8441341556957966e-01 7.7480988277374208e-01
      3.4010968442505798e-02 -1.1328269661218044e+00
      1.8368640662716007e-01 1.4894774953223313e+00
      7.3084495361899837e-01 3.7528849006785481e-01
      -6.8346660515237996e-03 -9.9088973834829808e-01
      -2.2681588112328690e+00 5.3208560787401238e-01
      1.2282695398273369e+00 -1.1956596895204197e+00
      -3.9828267533738909e-01 -1.9910721056332326e-01
      -2.4963621488388141e+00 1.2487364475811884e+00
      -7.5333130762152383e+00 -2.7698360310101968e+00
      -2.2424887931380679e+00 2.7529410489118704e+00
      -2.4409603343014403e+00 -5.1592148545419336e+00
      3.6084380083312173e-01 3.1589059576083902e+00
      2.3015502490625281e+00 -4.3485959268840957e-01
      7.0666357731431917e-01 1.5407284049474073e+00
      4.3681600034062313e+00 3.1862090867738884e+00
      -2.9111348812806441e+00 1.1747397966580542e+00
      -2.1728587486209547e+00 6.1873252841921959e-02
      7.2285439270234542e-01 -3.5192268306095779e-02
      6.7962964936465486e-01 -1.0164707616221005e+00
      1.7405493431973083e+00 1.2682146636092690e+00
      -1.4134655399191065e+00 -5.6597358653877283e-01
      2.2578906408484807e+00 -7.2907128683083000e-01
      -2.6839566099258931e+00 -1.0789979329856285e+00
      -3.6165913292664448e-01 -1.3446502161941096e+00
      -4.4409761144851432e+00 1.2826744102915983e+00
      1.2856216028472647e+00 -6.6084378123332521e-01
      1.9143518577177869e+00 2.0448774405370309e+00
      -3.2829513261793802e-01 1.0482145564468370e+00
      -2.9746398866878554e-01 -1.0863608315030611e+00
      1.3917108025323888e+00 -1.4370825672789980e+00
      -9.0467174297535879e-01 -1.2742302657247850e+00
      2.6321137485224946e+00 3.0841004692299417e-01
      2.5389365911673059e+00 4.6582776787530494e-01
      -1.9350020194080104e+00 -1.4364226303821768e+00
      1.0495833109429102e-01 1.5753771163128855e-01
      1.0198258497353044e-02 -1.1507243866410788e+00
      -3.8088532187244950e+00 -8.4855283746117260e-01
      -1.0765548976916992e+00 -5.2476305279820468e-01
      3.6334440447888416e-01 2.6182896823017932e+00
      -1.1812554543604523e+00 -2.5181536617865190e-02
      -7.0712267299053821e-01 -6.2789426448815644e-01
      -1.3915082652359787e+00 2.9245053456795195e-01
      -1.2545426511047757e+00 -1.1246485610764395e-01
      -8.8216127171608330e-02 -9.0583278657161681e-01
      -1.6530218918976587e+00 -1.6982315196590352e+00
      -1.1185687217511566e+00 7.8273618944942280e-01
      1.1509751969635844e-01 -1.6939120869917879e+00
      9.1215703956873473e-01 1.2784488682752368e+00
      -3.4125507329464559e+00 -1.0539251595678865e+00
      -1.0086252687184436e+00 -4.3859886908716678e-01
      1.9550921606809138e-01 -4.5107646503847737e-01
      1.9201691273594543e-01 1.3287388868642265e+00
      -1.9258863897116099e-01 -1.3697373583979084e+00
      -3.2107097874326007e-01 9.5196414297846188e-01
      -4.6274063046612891e-02 -1.3021653103340948e-02
      -2.3616170158288274e+00 9.6591876737025628e-01
      -5.5694684479590195e-01 -1.3714424219694139e+00
      1.3360485264371069e+00 -1.5192086865907661e+00
      1.5778640011729370e-01 1.3798309123006660e+00
      1.1070758933926907e+00 2.5423960524998679e-01
      3.1375554230388305e+00 -8.5175599239337052e-01
      -7.3725406819494954e-01 -9.5520635357148875e-01
      4.6396837608426340e-03 8.8589088989186071e-01
      -2.0312498503813858e-01 4.5280417973131746e+00
      -1.1990410537672638e+00 -3.8018111766852902e+00
      -1.6192887057635255e+00 -3.2017853189396415e+00
      -1.4676074546140787e+00 -1.3776162598164667e+00
      1.4391595081430373e+00 5.5211081663828966e-02
      2.6084155602640515e+00 2.4748846080264029e+00
      1.7902368203671997e+00 1.5854283365159176e+00
      2.3437437221258963e+00 -1.3237635053270416e+00
      -1.6524857172989034e+00 1.4915946185901796e+00
      -4.3111812295988217e-01 -1.0429797557938196e+00
      -4.3081572693003428e-01 2.6136319905646581e+00
      1.7221212845011109e+00 -1.8184290818489313e-01
      -2.9318475915084545e+00 -4.1038473243288411e+00
      -3.3409390266507759e+00 1.0906921737589736e-01
      2.3466098680570369e+00 2.6551931003964295e+00
      2.6836885314904064e+00 1.9641530580040214e+00
      2.1154535532943602e-01 -9.2263185076141563e-02
      -1.4520968096644666e+00 -2.8387277190419407e+00
      -8.7407679943850924e-01 -3.3611884828290001e-01
      -2.6342828799920826e-02 -7.8651387757387958e-01
      -2.9811279619242743e-02 -1.7561242431374458e+00
      6.8843672176155413e-01 3.4207365749142871e+00
      2.8613038689451192e-01 2.4099727605825065e+00
      -9.7083165285273598e-01 4.9971055360540542e-02
      2.1385294065598409e-01 3.0899374589496875e+00
      -4.1669280442890413e+00 5.4232406038595893e-01
      -1.1246467969139040e+00 -2.0267429063619753e+00
      -2.9886208345065115e+00 -9.3940932198580640e-01
      4.6305532037893782e-01 -6.2400851491222091e-02
      -1.5891913522255281e+00 -1.4329624917920194e+00
      9.3002768029781258e-01 2.9082221923682088e+00
      5.8847906611275791e-01 -4.5307477859533946e-01
      -2.8417800106221208e-01 1.8768154311714449e+00
      5.1076046350851161e-02 -7.7671502716077834e-01
      2.2004344434124703e+00 4.7777549350710030e-01
      2.1810571189827059e+00 -1.2600712764855966e+00
      8.4575700663313846e-01 9.2413479841266977e-01
      1.2288074661471306e-01 8.2122022826643681e-01
      -1.4166404096603213e+00 -3.1061423073292782e+00
      7.7365667501647195e-01 4.5705317166337822e-01
      3.0641470093741185e-01 -2.6614343733261738e+00
      -2.5115085433320963e+00 1.1318620840371667e+00
      1.7304692793844831e+00 -9.8438719827112442e-01
      1.1841182956191121e+00 1.5909555409624385e+00
      -1.9374771082399803e-01 2.1970169385068394e+00
      -7.0575329619438232e-01 -2.5963866707039180e+00
      1.0099328282520597e+00 5.9212727087179506e-01
      -8.4410008690202587e-01 3.9281575725355968e+00
      7.4656557530992373e-02 -1.2632686010043501e+00
      -1.5210901580933431e-01 1.4273663427583501e+00
      2.6123301108786370e+00 9.5091715148844425e-01
      -6.9702294712547419e-01 -2.0033306794561159e+00
      2.6001010299970364e+00 3.8985781024221393e+00
      -3.7968382729613173e+00 4.1075226065695047e-01
      -8.0127588670137351e-01 5.1679755690961360e-01
      5.0791304399791182e-01 3.0233997480837385e+00
      -4.0922538001336484e-01 1.3525433876909141e+00
      5.9164895584601584e-01 -5.3796860264794610e-01
      -3.0060326183216768e+00 -3.5091855732677470e+00
      -1.0177936679063442e+00 3.1053179546922605e-01
      2.0657694882732269e-01 -1.5794824901717770e+00
      4.6340730439517763e+00 1.5151718553431077e+00
      1.6362878704530104e+00 4.7647092322070417e-01
      -3.0690628638526336e+00 1.2646734944581842e-01
      -8.4874175269391305e-01 2.9794640879345216e+00
      -2.0755325493298025e+00 -2.6118469502191215e+00
      -1.4185743598326621e+00 6.1575993178730144e-02
      4.5343228088718268e+00 3.1764408846156528e-01
      -1.7651591926670314e+00 1.0869918109268200e+00
      8.9196051794963660e-01 9.3175662084528277e-01
      1.2530350813193096e+00 -8.9843677880891459e-01
      -2.3481169078982159e-01 3.8591107537036828e-01
      1.4841510541081453e+00 -3.6259590682196863e-01
      -8.2285512518954343e-02 1.9043315019618146e-01
      4.1165249344611761e+00 2.3142338298211400e+00
      5.5916953396012248e-01 2.3167322554944620e+00
      -3.5015255844223145e+00 -7.7639969700094902e-01
      -2.0763787302491926e-01 -1.9880221854583657e+00
      3.8907791557289328e-01 -2.7215690981472913e+00
      1.3122536710701099e-01 3.3154161492040362e+00
      2.8015727553671249e-01 1.3374000751868411e+00
      5.1521603562393707e+00 -9.8775511869586649e-02
      1.3895972933202754e+00 1.3907933779829107e+00
      -2.8619039373267183e+00 -9.7211474752922034e-01
      -2.8871989645832441e+00 1.4427786873869322e+00
      -1.0566795643434101e+00 2.5910900945561779e+00
      -4.8292291521180886e+00 9.0269335313112675e-01
      2.3359842913810920e+00 1.1063084564294062e-01
      -3.3501261493531640e+00 -4.4344953284250882e-01
      4.1865400506133477e-01 3.6525904479281310e+00
      -7.1884084400910764e-02 1.7602103737306394e+00
      -3.4290084860759178e+00 3.9065491312911989e+00
      1.4331339547414355e+00 -1.9667223255291577e-01
      4.5990004864830016e+00 -1.0179470142288718e-01
      2.1487094776232594e+00 -2.1645489176480974e+00
      6.5280151182117263e-01 2.2384641109344137e+00
      9.1416198173938146e-01 -1.0602706620629887e-01
      -1.0536024291722386e+00 2.8361807272809463e+00
      -2.1859751336975108e+00 -1.2932200903850004e+00
      -1.4216317648367391e-01 2.5175394372796984e+00
      4.0887080545994697e-01 -3.7490433456794690e+00
      -2.2356862545855565e+00 8.7068985951213462e-01
      3.2458038632473176e+00 1.3904528513363226e+00
      3.6525682534995119e-01 1.9037801281419087e+00
      -2.6354580689247560e+00 1.1781707163563266e+00
      1.5658641855838045e+00 4.2355848347705667e+00
      2.8383088940002970e+00 -1.5402098575125480e+00
      -1.5026393061796861e-01 -2.9403439496334878e+00
      -4.0156500171330292e+00 -1.4978946911692070e+00
      7.5667484455076239e-01 -2.7142476010519450e+00
      -1.7250921929448624e+00 -2.2295646331237595e+00
      -4.5991405894080639e+00 1.9837197083508409e-01
      -1.4568638524674136e+00 2.0774878358989652e+00
      3.5593363666962787e+00 -3.5442717756361491e-01
      -2.1667355717688355e+00 1.6594444389942105e+00
      1.3167574899740683e-01 2.1776173403561527e+00
      5.2884384215819562e+00 -1.9204728620106573e+00
      2.6113984454495875e-01 3.6857170218460116e+00
      -3.7338991536556709e+00 -1.3494193924155868e+00
      7.1728514176670433e-01 1.7689743023309623e-01
      -3.6788936776882736e-01 2.3481228427881176e+00
      -2.6941739848509552e+00 -3.2534640111693047e-01
      1.3054186010901803e-01 4.9841416926944593e+00
      1.5556722760142697e-01 9.8779065038242453e-01
      6.5561657903455439e-01 3.4207506906453089e+00
      2.0483935982917947e+00 3.4540324534099027e+00
      4.9227876731078934e-01 1.5271523064668144e+00
      -2.6006205384058187e+00 -1.7922206086802550e+00
      6.9061414890461026e-01 -2.8723952565046951e-01
      -1.2291353712986921e+00 -5.5127788357868264e+00
      -3.4866877048540562e-01 -2.4798746933310109e-01
      -2.7227320832915796e+00 -8.3412645100193550e-01
      4.0433435780203048e-01 9.7856259996460682e-01
      2.7456246850997439e+00 4.3652198715203083e-01
      1.2893588923318688e+00 2.8297281711661681e+00
      7.3978777583281563e-01 1.2892606701457681e+00
      -1.6848713682301504e+00 -4.4566141890600681e+00
      4.1318369490295903e-01 1.8834102678351734e+00
      9.5765163847906631e-01 -7.6937027292903504e-01
      -5.6489504432645388e-01 -1.6353040817028868e+00
      1.6240402138825369e-01 3.8163866709893988e+00
      4.4740457551958929e-01 -1.3761341392687043e+00
      1.9260456353824040e+00 2.6894488890076436e+00
      1.6679758367270463e+00 -1.3619105465641528e+00
      3.0826748657511613e+00 1.5277958437795398e+00
      -3.0735223826956224e+00 -4.5317993961117216e+00
      9.6667731173875449e-01 5.3850297490364545e+00
      1.7102023417605501e+00 6.9257201391038947e-01
      6.3470997013208252e-01 -4.1655167598327131e-01
      8.4116669398030156e-02 -2.3850961225344052e+00
      -2.4624775540195936e+00 4.0384521911864812e+00
      -3.4969718047334402e+00 3.7944015055011809e-01
      2.0559652149565197e+00 2.0787703281921384e+00
      2.6106464428220605e-01 -3.5377934041594189e-01
      2.9536880572454416e-01 1.9110216908590734e+00
      -3.1295678791145815e-01 -8.5164391420284480e-01
      -3.2937551717974984e+00 -3.7315931722475799e+00
      -4.5572551713086516e-02 1.5555528864365942e+00
      -9.1445494859385956e-01 -2.1259064346858594e+00
      -3.7083857506167894e+00 -1.2978551909443612e+00
      -2.7745061104154606e-01 2.2732260387389620e+00
      -4.3486761300150736e+00 -3.2986953036341532e-01
      1.0469367029441774e+00 -1.1322056354769197e+00
      -1.0400435510481185e+00 1.7496754546695195e+00
      1.5142284872499792e+00 2.5160132158950068e+00
      -2.7223013857765772e+00 -6.4544687864284063e+00
      -5.7639226961660373e-01 3.0268684010164160e+00
      3.7264037907887135e+00 -1.5978718212056180e+00
      7.8166053645693834e-01 1.7551370513021356e+00
      2.1005998514965509e+00 -5.2559784718843625e+00
      -3.4823710867476381e+00 5.6349267552611826e+00
      2.8744794420526654e-01 1.7601910432397705e+00
      2.5429056156721247e-01 -1.3292754972679293e+00
      -4.5228030495172322e-01 4.1433695586066882e-01
      1.4461139077957085e-02 -2.2432266116972391e-01
      -2.1078994812117639e-03 -1.9637173989324606e+00
      1.3653339601109140e+00 -2.7438558719298425e+00
      1.2316645708379437e+00 1.6612770692201315e+00
      1.6087921079493459e+00 -1.4963462604484712e+00
      -2.1141126678724027e+00 -1.1700115559187767e+00
      6.5917167617841876e-01 -1.4827906880449080e+00
      4.2499328241138529e-01 2.1617915471365721e+00
      1.0897470947884409e+00 -1.3124886877967814e+00
      -1.3175871121022065e+00 6.3259792743556542e-01
      -1.0068472385316618e+00 7.2637179507420768e-01
      3.2481886554770716e+00 -4.1808959647090549e-01
      1.2671617614545236e+00 1.0515692259323477e+00
      2.8441817855471219e+00 -1.0004962201721666e+00
      6.1766480858418638e-01 1.3639053644616190e+00
      2.5494474964525748e+00 -6.7948032159750160e-01
      -1.9451372770773590e+00 5.1501180509211519e-01
      2.7137757017439967e+00 6.7855029372592124e-01
      4.8877112059232686e-01 2.3791985295367137e+00
      -3.8562544097523430e+00 -5.1639916954976828e-01
      4.8466234882485991e-02 -9.8383799143376838e-01
      -4.3157000264541799e-02 -1.1095238058344611e-01
      1.3225585518317282e+00 9.9722187258090667e-01
      1.4606953823537510e+00 4.7128800649283979e+00
      -3.0692627465719151e+00 -5.6188113279914875e-01
      2.5105358202868532e-02 -3.1077017068958207e-01
      4.7416136426815955e-02 1.5761616251817883e+00
      -3.9991410909828690e-01 -1.1652292070434569e+00
      -2.4608943373764300e+00 -2.8422188628587643e+00
      -1.3859262979755849e+00 -2.7315057491096595e+00
      6.1771571948867110e-01 3.3801988521522619e-01
      2.4312040888808757e+00 1.0618872352976612e+00
      2.5521934443439807e+00 1.3886517279512416e+00
      2.1095341366850513e+00 -1.4116331442289713e+00
      1.7997642667082187e-01 1.8780062227870264e+00
      2.7124382750504576e+00 5.0766498344834676e-01
      -2.9934482672303369e+00 2.7564303709389208e+00
      2.5666765231920552e+00 9.0294505306147166e-01
      -6.6680809075976410e-01 1.2402463275150397e+00
      2.6993267106008449e+00 -7.1960567167191791e-01
      3.5480677074773808e+00 1.1089305611610654e+00
      2.6998363051074272e+00 1.2227814999570105e-01
      1.6210752962016906e+00 -9.8071660630735924e-01
      2.9279694996980226e+00 -1.5745682782735753e+00
      5.3830227531048158e-01 1.1350892812137001e+00
      -1.8705567504649547e-02 -1.2981830924191025e+00
      -9.3923606423160971e-02 2.5312650564901680e+00
      -1.1000288210986993e-01 1.3607738754340750e+00
      -7.2091837353182742e-01 3.4811676196777883e+00
      -6.3441057534303058e-01 -1.7713093947935159e+00
      1.9742402676998453e-03 -2.9103786763557542e+00
      -2.6986136087260424e+00 1.3031190329840627e+00
      1.0379788821170097e+00 -3.7423539904530907e-02
      -1.0394678487267723e+00 -2.2495383037551870e+00
      1.7387318059766736e+00 2.1063719760124395e+00
      7.7432872539475672e-01 8.3294886651100042e-01
      -1.1612163392689749e+00 1.3916095423692780e+00
      3.8469724092478366e+00 1.0429817032497060e+00
      2.7218334940266691e+00 -7.2114071219512665e-01
      2.1474414421204919e+00 1.8126195255068520e-01
      -4.5270416095408911e-01 -2.9612162119323587e-01
      1.8207288818506377e+00 1.1014981948069129e+00
      -1.2692025799086899e+00 -8.6126185631939045e-01
      -2.0846770056223236e+00 -2.1139900917822514e+00
      6.4067282654941671e-01 -3.0998079689803522e+00
      -2.5010224554511802e+00 -1.5468643101316186e+00
      4.4804493956658636e-01 1.1165647538459298e+00
      2.4806283631594961e+00 -1.3507570337108268e+00
      1.2610329387213171e-01 2.5059250506820487e+00
      -3.4324383017105092e-01 -1.5390376755379471e+00
      1.5905072896685313e+00 -1.2195993217651779e+00
      -1.4709144527149471e+00 -5.0927277924093870e+00
      -1.6180143466023806e+00 -1.4075614335244677e-01
      4.5784904277173215e+00 -1.6037257043804098e-01
      -1.2081271913630103e+00 -7.9939844510216918e-01
      5.9708866158105733e-01 -4.6296005788703870e-01
      -2.2045008651538338e+00 1.3495419039881904e+00
      -1.6230705801303595e+00 1.0854345938795393e+00
      2.0451653235863008e+00 -7.8075601756811008e-01
      -7.5851176830234401e-01 -5.7756077698022845e-01
      1.3852152436189542e+00 1.6448646218649994e+00
      2.3017389932663573e-01 2.4631939941854575e+00
      -6.8494613267176527e+00 -5.8766558173628447e-01
      -1.6377800698625253e+00 -3.1687574538208767e+00
      5.7347535335796911e+00 -5.3773332817603583e+00
      -3.7791621616294579e-01 1.6768894814401938e-01
      -8.8546185002517916e-02 2.1944834450733914e+00
      4.2482777315329265e+00 -6.1953192736878995e+00
      -2.8128959311303130e+00 2.0174183677614366e+00
      1.2495810887321848e+00 -3.4223013068485519e+00
      -5.1513681129135225e-01 4.5866976155493105e-01
      1.3424324013563047e+00 -5.6025051005271127e+00
      9.5253393144458853e-01 -4.4052210383614092e+00
      -5.8461118348744456e-01 2.8843797029595136e-01
      -2.6863702357701613e+00 -2.0594836274361183e+00
      -2.2227376820731986e-02 -4.4384651755347058e+00
      -5.3702044480231259e-01 2.8596330718059382e-01
      -4.8229516726918881e-01 1.1408030255074071e+00
      -3.3392858760454791e-01 -1.5320186861782992e+00
      1.6299029338938409e+00 1.0343524434792002e-01
      5.2424467519683917e+00 -1.1445011980805462e+00
      2.1103948682009555e-01 1.0625143669134334e+00
      -7.5647916636751606e+00 -8.0871630350124901e-01
      -1.9644962718608463e+00 4.6966749392868286e+00
      -2.0817196689370210e-01 -3.1401691485174332e+00
      -1.8227767721539507e+00 -1.4985323445961025e+00
      1.3445027816628644e-01 -1.5529962954808327e+00
      7.3175991712060497e+00 -3.9799402947835643e+00
      1.7729287455162583e+00 3.5460492709965430e+00
      1.9921711114368970e+00 -1.6622863783865174e+00
      -1.0766527726978168e-02 1.1541294624067286e+00
      -5.1018304976830831e-01 -1.7191701924546103e+00
      -9.1949286291041410e-01 2.1017973606977267e+00
      -1.3662594255778788e+00 6.0819376656117718e-01
      -5.8378391864623569e-03 -4.8142865622273057e+00
      6.4126229751057917e-01 -5.6917405244888997e-01
      -1.8084149404512122e+00 -1.0183140742123942e+00
      -4.9834524565558852e-01 3.3447860141168779e+00
      3.0629494474099572e-01 -4.2047038500421909e-03
      1.1519172760036382e+00 -1.3224273575733586e-01
      2.2753157933798285e+00 4.7193508514064559e+00
      4.9975600782572974e-02 9.6081056608733761e-01
      -5.5311607690456626e+00 -4.5483603478586838e+00
      2.5095902374940802e+00 1.6055328987400526e+00
      5.5186624159619182e+00 -1.0889251964215918e+00
      -1.3144213875915047e+00 -7.8125373857761380e+00
      -2.1625284361879896e-01 -4.6903085475382786e+00
      -3.0676018466689334e+00 8.1704621131229871e-01
      -1.7508045788341156e+00 6.5174659678178326e-01
      -6.4171217618416234e+00 -2.3815067135367607e+00
      1.1188707283264949e+00 4.9215898392323636e+00
      2.5497323940791845e+00 2.4738595359214162e+00
      1.5463134891674775e+00 -2.2520319465335557e+00
      2.5934692937691289e-01 -1.1112428596764255e+01
      -5.2865253278771256e+00 -1.3118123334763601e+00
      -3.5376973156138130e+00 1.4563011031647748e+00
      -2.9770079841605330e+00 3.9807141196392426e-01
      -1.5642477902513723e+00 -3.0255994877710970e+00
      1.1510095108983986e+00 -3.2224208153469909e+00
      -3.2249898420629458e-01 -3.7049850413123764e-01
      -3.1910316919526305e-01 -2.9236417627828657e+00
      -6.3759363967204286e-01 -4.8078146523077722e-02
      4.0730452862940565e+00 -2.1891203941819524e+00
      -3.4872528306637762e-01 8.2640446894087454e+00
      8.4500466834070073e-02 1.5703993681501807e+00
      -1.3452959558515718e+00 -6.7170346528083922e+00
      -7.6703336965484167e-03 2.6886980227224431e+00
      -9.4774469363821119e+00 -4.3817458100468256e+00
      -2.1059029705431960e+00 2.4816531092206255e+00
      -3.9804861474408573e+00 5.2893462643139921e-01
      -7.3942308426180292e-01 1.7609999156969287e+00
      -7.2847864370046833e-01 -1.2015039969490899e+00
      5.3807250423923447e+00 1.4323626785714498e+00
      7.1592673342534408e-01 -5.7941995383520064e+00
      -4.4167728214837840e+00 -5.0038479723004334e+00
      1.7560616046920909e+00 4.0450177291796914e+00
      -2.0974961197082096e+00 -4.6364451351254639e+00
      -3.7128717221253565e-01 -8.8651959820618909e-01
      1.8659983937635898e+00 -3.0963690766593936e+00
      1.3312814973628126e+00 -6.0855268499326416e-03
      -1.3275156612580044e-01 2.9525972638757167e+00
      -6.0559441733084050e-02 4.8210222725008354e+00
      2.2884680574929557e+00 2.6600839167415091e+00
      2.3194862263490168e+00 6.4094060130473718e+00
      -4.7723072713772607e-01 -2.3886000080369172e+00
      3.4140950326293753e+00 -2.8844875320637170e-01
      1.6013636501694475e-01 9.1871007025857541e+00
      1.0738289690737730e+00 -3.1152980283075795e+00
      -5.1096238766187039e+00 -3.2512405227463099e+00
      2.9787607664071018e-03 -2.8310750746443190e+00
      2.0373906888366187e+00 -2.6646865309091643e+00
      -1.9381695469192822e-01 -3.9651565900074672e+00
      2.5766355884239585e+00 1.8984121975517796e+00
      1.4656541573546518e+00 4.6815017265805832e+00
      -2.1283809511961764e+00 -1.4566675000339959e+00
      1.1887542740753985e+00 3.2793525535824561e+00
      -6.3234156310923628e-01 2.9564912687359537e+00
      -1.0754848176615572e+00 8.4196312278716393e-02
      8.7166094183116964e+00 -1.0873071300308321e+00
      -1.2347041619750030e+00 -4.4908007888980300e-01
      2.5581018863960652e+00 4.6858342536116835e+00
      -4.4606047941873922e-02 1.8111908830858141e+00
      -1.6792547164189757e+00 2.3637252259356574e+00
      -3.9466980581624282e+00 1.4696258304494836e+00
      -1.7598523656741391e-01 -3.0725857312302356e+00
      5.3567147047724883e-01 -1.6544389605154299e+00
      3.5206665710891216e-01 6.8616351683806363e+00
      1.6886818668772983e+00 1.4341680188904329e+00
      -2.4589141483007233e+00 -1.2727070632168451e+00
      4.0969017331109434e+00 -3.9780224990248363e+00
      -2.4532076937333347e+00 -5.9666254331655022e-01
      -7.4624323410245486e-01 -5.6524426065668605e+00
      -4.4993832741474765e-01 -1.9740675833750367e+00
      9.4255927254718652e-01 2.8063837201943560e+00
      -1.7557799418376996e+00 -7.2973826462926036e-02
      -1.0973373332676548e+00 -2.9970408677561777e+00
      -2.7356264187646011e+00 4.2494004391711684e+00
      8.8088339918255631e-01 2.2928705304163395e+00
      4.0718584044192081e+00 -1.5189915310538487e+00
      2.0594441728388397e+00 9.6997029097057680e-02
      -1.6867234351497515e+00 3.5051893724460506e+00
      -5.1469382735729881e-02 -4.5419054951592432e+00
      2.2490707004632222e+00 1.6198879770686072e+00
      4.6339748861521805e-02 -1.2917798820431659e+00
      -1.7291010725713336e+00 -1.1112627006739162e+00
      -1.5132844379759234e+00 1.1496263295392597e+00
      4.7676884803339364e-01 1.3223314622248505e+00
      4.3358728328268139e+00 -4.3996002697706107e+00
      -2.2044726884471083e-01 -3.1267445551372033e+00
      7.6636206027885367e-01 -5.6575428588590893e-01
      -2.0149188870194776e+00 -1.6343713810931657e+00
      -4.5890398072316803e+00 -1.4512585821487920e+00
      1.0221106655928522e+00 -2.8455270086102549e+00
      -2.1324387764975734e+00 1.0701105904824864e+00
      -5.5210501212914609e-01 2.2029918324833678e-01
      -2.0186097884100532e-01 -7.1353545231222643e-02
      2.3351437672902858e-01 2.3937381746340405e+00
      -1.7322498219954734e+00 -2.8438384554995237e+00
      2.2142845329794016e+00 -1.8977476404617739e-02
      1.5416684775844944e-01 -1.3190876308281213e-01
      1.0040496144089175e+00 3.1685133633419325e+00
      -2.8954546259033287e-01 -3.5959401261160049e+00
      -2.3410975136213935e-01 -5.2673025609856861e-01
      2.0036602379941854e-01 2.1100823387022158e+00
      3.3941035187346080e+00 2.1278641311886373e-01
      1.3525012634603557e-02 -2.1411538981965844e-01
      -4.0344826814569834e-01 1.2488209048939496e+00
      -4.9577031139851047e-01 -4.5378744574715872e+00
      -1.7380770857195744e+00 -1.4529591600637892e-01
      -1.3168649363365275e+00 -3.8161557100794508e-01
      2.3593638430230460e-01 -2.5422120035791425e+00
      3.2123636985232897e+00 -3.8197634121510302e+00
      1.5616490839970902e+00 8.2883726769214427e-01
      1.3029788384713070e+00 4.7960159377121270e-01
      -1.7609310773591862e+00 1.3887508867413576e+00
      1.8403630605397855e-01 -4.5208752108168171e-01
      2.2236697009741220e+00 7.2732176707702756e-01
      -6.4051688561163933e-01 1.7923607938140560e+00
      -3.9804366294985255e-01 2.7718552531160168e-01
      -8.2253075904564166e-01 -8.9254806894437211e-02
      2.8860334244643853e+00 1.5982651348505088e+00
      2.7207062627577909e+00 -2.4603839863318884e+00
      2.0899368320289411e+00 1.3076837231414754e-01
      -1.7260777422032178e-02 2.2312493179429107e+00
      1.7489627132064085e+00 -4.4127393323204052e+00
      2.4575024369695386e-02 -1.4773473515699000e+00
      7.0484894020184152e-02 -1.2691821559986716e+00
      -7.1250287441900928e-01 -2.1572695626431480e+00
      8.3061202014178759e-01 -2.6708933598517720e-01
      3.4082935825165650e-01 -1.2054291275273763e+00
      1.2167655780447475e+00 -9.2615367267214288e-01
      2.0610943733557341e+00 6.1228649541382318e-01
      -1.0928028378534447e+00 -6.6127958476291093e-01
      4.5353047202554961e+00 -4.0444609091860357e+00
      -4.7795714818720159e+00 -4.0702811277138933e+00
      -5.6362714900414677e+00 2.3350397348089298e+00
      -1.5432267606539266e-01 -5.1613756780781213e+00
      -2.3445203101388139e+00 2.2572590446841811e+00
      -3.0043954837687350e+00 -6.5693188178671069e-01
      2.2151431694652199e+00 -2.2728652962820775e+00
      -1.2903191371371242e-01 -8.8434853092082188e-01
      1.8481326237284683e+00 -8.5003943918714520e-01
      3.7298130050808909e-01 -1.5338090578068884e+00
      5.9102648182841300e-01 -2.6603317599112444e+00
      -1.9866107590768223e+00 8.7889871578509304e-01
      -1.1876203576861939e+00 1.4903623555004046e+00
      3.7321402412199162e-01 1.8608800262722081e+00
      1.9053779505193156e+00 -2.5896157674019973e+00
      8.9961540582533350e-01 2.7567762077460128e-01
      5.0489907102217246e-01 -1.2367515340190531e+00
      -9.7510079329972477e-01 -1.8501010910100548e+00
      -1.3905059949785368e+00 1.5397173850749929e-01
      4.1942846257020268e+00 4.2432866749764697e-01
      2.4656324718800797e+00 -1.0144962319644282e+00
      2.1688282458689745e+00 1.4297897266215183e+00
      -7.3188225196954004e-01 2.3417421451370206e+00
      -1.2601025538586661e+00 -2.4668445435485076e+00
      3.6529794667201632e-01 3.0955076451240227e+00
      -5.7413666246962848e-02 -7.2861824937584863e-01
      2.9623703195284934e+00 -5.1840414660473932e-01
      -1.9242661077704089e+00 -2.9554601438237565e-01
      1.6896746649870370e-01 -2.8773749819827570e+00
      2.1413552175062853e+00 -1.4669667740568446e+00
      -2.4389022789753003e+00 -2.3687373799897098e+00
      4.5115833319326333e+00 -5.8774769529790515e-02
      -1.0853359965265492e+00 -4.1590963235699563e-01
      2.0332390862280961e-01 7.5288001670645421e-01
      1.2737199919532087e+00 -6.5346485636324143e+00
      -3.8513316063916703e-01 -5.4956280303830807e-01
      4.2977622288766559e+00 3.1256489908654221e+00
      4.1262507901173079e-01 -1.8164330013764537e-01
      -2.7290541231321699e+00 -3.8161534028713859e+00
      3.0577542898938685e+00 -2.3630772976094723e+00
      1.4767602482672382e+00 5.5945859188612579e-01
      5.1355177905703533e+00 7.3449410305195473e-01
      1.2163947598451221e+00 3.1877591438287829e+00
      8.2780746326883292e-01 -1.0303864947179022e+00
      4.0533565174924622e+00 1.8356757908567380e+00
      -1.7393790476041167e+00 2.2229720095498724e+00
      4.4175876492149735e+00 -1.8008213090887881e-01
      2.4090146654457442e-01 5.6003873589403938e-02
      3.7539855483983697e-01 -3.8068999996029107e+00
      -3.6269098847503005e+00 6.5187523578598263e+00
      4.6353244769569004e+00 -3.8630722783345717e+00
      -1.0171364285937188e+00 -5.7129280015001136e+00
      -1.5039046762574710e+00 -3.5087934797453726e+00
      -9.1746488436538404e-02 8.7296408464729702e-01
      4.3023247203279844e+00 -3.2949263080102984e+00
      -4.6918640516256200e+00 -4.7060653362197220e+00
      3.6308413550077621e+00 1.8483383737239718e+00
      2.1313588498550020e+00 2.5642917987045658e-02
      -5.2574500578146532e-01 -3.7771471899555951e+00
      -1.3406042942949719e+00 2.6888003812435044e+00
      -3.0869861158320049e+00 -2.5790102361846627e+00
      1.1085292665276425e+00 1.3896678993081359e+00
      -2.6654794413549467e+00 -4.2446310967581774e-01
      -3.5341398803009723e+00 -3.3343022513488987e+00
      5.5989641977102744e+00 1.7463335409820886e+00
      -6.9310160054593184e-01 1.5146216121342342e+00
      4.7554976456086813e+00 -2.1557589612461583e-02
      3.1632574982490094e+00 -3.1524975291256241e+00
      -6.8876755640845067e-01 1.8799939423075334e+00
      -4.1469089167473410e+00 -1.6274995313663585e+00
      1.0165915753971586e+00 -2.1533135632162526e+00
      3.2752539676945797e-01 1.7028644021444475e-01
      -2.6632498656877011e+00 -1.1850382743011085e+00
      -2.7167827900063807e-01 1.9378662920498830e+00
      -3.6486854105906144e+00 -4.9141007969759940e+00
      -3.5763243084915883e+00 -3.1090658504903734e+00
      -1.4451917597467215e-01 -3.5821437979950708e+00
      5.4300848745918917e-01 -3.3790066167865902e+00
      -6.7126566718523528e-01 7.1878786761435443e+00
      -5.9917819428665462e+00 -7.3940731899341223e+00
      -2.4885118739172166e-01 -7.4908925066325764e+00
      -1.3252918853476747e+00 -5.3199729637438784e+00
      1.0744424573610305e+00 1.8639106476107579e+00
      -4.5713256187391765e-01 7.4927152750429304e-01
      3.0144462577746018e-02 -3.5028819584964097e+00
      4.0680045885312470e+00 -4.3401976865896175e-01
      -1.3297735904774717e+00 1.9434954254394304e-01
      -4.6382476474814807e+00 -1.8027882794786041e+00
      9.6817644464675987e-02 -6.9452143103531139e-01
      -3.1089240990544780e+00 -4.2273302719458981e+00
      -1.6321000956668472e+00 7.9742450591346614e+00
      3.6446619090005554e+00 3.9900856507517997e+00
      2.8470705575012163e+00 -3.6603883487366540e+00
      4.5858481727277262e-01 5.1084968785883378e-01
      -5.0538482058868022e+00 -3.1800913342462120e+00
      1.8592891518039241e+00 -3.0103252232842137e+00
      2.2940247511457850e+00 -3.5525732516433206e+00
      -1.3614035190014389e+00 -2.0292785861768831e-01
      3.1884320269434308e-01 6.7006229399770301e-01
      -2.1300934688821420e+00 7.1916722106790165e-01
      5.7171206472120311e+00 -2.0938410110389749e+00
      -3.5684933082561550e+00 -4.6837112511339862e+00
      -1.1671331182164162e+00 5.4831060629393118e+00
      -3.2689153215843314e+00 -5.0197661500681356e-01
      4.5582862161268913e+00 1.8317253570350123e+00
      -3.9521375187764791e+00 -1.5487844715878691e+00
      -1.1112493969752211e+00 2.0757487601786506e-01
      -1.6243982306015483e+00 4.7989773437790948e+00
      3.4979428887515851e-01 4.7910693741466608e-02
      -4.2060418260268007e-01 3.8666220387311654e+00
      1.7746521141874054e+00 1.1247276325039921e+01
      4.4463977698427346e+00 -2.7983518546653068e+00
      1.7476517527670967e+00 -1.3250430763374382e-01
      1.6088262369127812e-01 5.1656674759565586e+00
      8.1076714972987596e-01 -7.2143152894951923e-01
      -5.7416937384664939e+00 -5.1454792317807234e+00
      -3.9878831309145206e+00 -6.9906615656649151e+00
      -5.9106991302380807e-01 -4.6982881470443143e+00
      1.7842576746345931e+00 -1.6995914168181556e+00
      6.6550533556237621e+00 1.1808984411991743e+00
      -5.0392113745183806e+00 4.4627243156221397e+00
      -6.0879289230980238e-01 1.3681937432087161e+00
      -4.3833692364095773e+00 5.4962798024435644e+00
      2.8696204091822621e+00 -1.0170695768642131e+00
      5.3053578981262071e+00 -2.3072450953629864e+00
      6.4928744419647924e+00 2.9440496246971763e+00
      8.8594818332749026e-01 4.3187691583826959e-01
      2.5820886185938403e+00 6.3626867704955483e+00
      7.4616509762727279e-01 3.0141933919319270e+00
      -5.8171187683443126e-01 1.0201145703995700e+00
      -8.0295277697282974e-01 -1.6378012829065203e+00
      2.8573819831324467e+00 -1.3316260674512228e+00
      -3.4051367088175208e+00 7.4947768202045928e-01
      -2.8000052888925131e-01 2.9850948985125911e+00
      2.4037714336778717e+00 -1.5336353479554603e+00
      -6.6100484696705459e+00 -4.8500030409723731e+00
      -2.4790036772494202e+00 -3.0212311358392157e+00
      9.3750636588028013e-01 -6.6579495892649625e+00
      2.4357855928001934e-01 2.1418965069455522e+00
      4.1822181890774237e+00 -2.8107364338332879e+00
      2.0570433161778747e+00 2.2903770514979618e+00
      -6.2498956701697680e-02 -4.3484940279326362e-01
      -2.9113412690449003e+00 4.6916795055930347e+00
      5.1499322764879905e+00 -5.9590194835652763e+00
      3.7387739794051007e+00 -5.9767178111776929e+00
      3.2330859456332623e+00 -8.0213878524094773e-01
      5.0460276139442417e+00 -2.5490289021514329e-01
      1.3649682549914883e+00 6.6161747290971711e+00
      -3.1142758510622266e-02 6.8621181721208444e+00
      2.7234265718889263e+00 -3.5277277442719623e-01
      -1.6823355955974879e+00 -1.6792642686176666e+00
      1.6450992205244241e+00 -3.8113362200565182e+00
      -6.6534114867637562e-01 -8.5372228347057666e-01
      7.2971503396722370e-01 -4.0702961600197857e-01
      3.5465184915310688e-01 -5.0578012286661955e-01
      4.3124613605340251e-01 3.1586590382736734e-01
      2.3061573238783923e+00 1.0643767831075344e+00
      2.4128164398518268e-01 -3.4618027736078583e+00
      2.2060172174339709e-01 -5.5178453801614269e-01
      9.7980043165111441e-01 -7.4313682615575083e-01
      -1.5706493442336487e+00 -5.7448096556289463e-01
      -1.8526487780927268e+00 4.4907565373742575e-01
      2.3435631072769754e+00 -7.1973083308232336e-02
      1.7611174352571868e+00 -1.0108969007477961e+00
      9.2775628229054141e-01 -2.7751263965924028e-01
      -4.6945901773549059e-01 -1.6518705265412303e+00
      4.0834643049119013e+00 -1.2870887757028504e+00
      1.0596176805146758e+00 1.8309014585750272e-01
      6.6475415406471505e-01 1.1745208552847413e+00
      1.1550302975854096e+00 2.6843412854694533e+00
      7.8932252516871859e-02 6.2937340500330730e-01
      -1.1596804339856219e+00 -9.0501664256913014e-02
      2.7147599015146396e-02 -7.9819445423304580e-01
      -1.5069323625304047e-02 -9.8515971354778617e-02
      7.1140628912983117e-01 -2.8056657602821855e+00
      -3.5879588384237588e+00 -3.7467423653805565e-01
      -1.4020881827307528e+00 7.4517106371272857e-01
      1.8448665669380766e+00 -3.0018248823739385e-01
      2.5926102588981181e+00 -1.5657627658668534e+00
      4.7157634000845716e-01 2.9795073043970932e+00
      1.7105245377763909e-01 -1.9590839500750554e+00
      -3.2512000009775419e+00 -1.4161407404322994e+00
      -4.3080644628291048e-01 -1.6796402785491640e-01
      1.1275548509282223e+00 2.1853627759865608e+00
      1.0481788121395801e+00 3.0583676029068982e+00
      -1.5648698644680130e+00 1.3043172751443408e+00
      2.6398799975037948e+00 1.4589681276442998e-01
      6.4794726265677589e+00 -9.2961434409597443e-01
      3.3750977846948929e+00 -1.8483991096699093e+00
      -4.1735537108034509e-01 1.4189306510674293e+00
      4.9971514923796673e-01 2.5803931794976420e-01
      7.1668353829780640e-01 -7.5437226104083199e-01
      -7.9721917197353651e-03 -2.4089374414900027e+00
      -2.1001650412824194e-01 -2.1558881927983680e+00
      1.2988012029771330e+00 -2.3738330252318924e+00
      2.6520890309264672e-01 -8.2812832245706380e-01
      -1.4875627912616474e+00 -5.9726378010967052e-01
      1.5491913339978236e-01 2.3699588856638107e+00
      4.3003747521650970e+00 -7.2557649779017142e-01
      1.0524685240514697e+00 -3.0205528964135142e-01
      3.7882585408288896e+00 -1.2369064629924949e-01
      -2.2159893587627777e+00 -7.4290124013091641e-01
      -2.3966726787056718e+00 1.2521932042424939e+00
      2.8686468303214436e+00 1.2799679127447110e+00
      3.2099040727212913e-01 -4.7046660557562880e-01
      -4.2016923454191657e-01 4.3994669268038686e+00
      9.5099778954458558e-01 1.5957074229519858e-01
      2.7483523604952931e-01 -2.5378971454589889e+00
      3.2471292276097934e+00 3.9675350804012599e-01
      3.4807040805237660e-01 -1.9972415360106595e+00
      2.9820400918427401e+00 -2.1446114481149139e+00
      -1.3090261172687805e+00 1.7916619667808333e+00
      1.0465074345645164e+00 1.0197151833671590e-01
      -4.3169413424829861e-01 -1.2817752298780289e+00
      1.1066081132745309e+00 -5.1484154997314824e-01
      1.9078108068623686e-01 2.2511151564146741e+00
      8.3870214838111978e-01 1.0656497531709526e+00
      -2.6291951770566407e-02 7.2846764020958477e-01
      3.8879447509058296e-01 3.2378075074665618e+00
      -2.3649984090605005e+00 -4.3627281242753541e-01
      2.4296421429252271e+00 1.2306633338350290e-01
      1.0184531017255170e+00 -1.6480734822610441e+00
      -6.9778147332237850e-01 -7.7245696549007337e-01
      5.0152759232036970e-01 1.1235028300494938e+00
      2.1831374845539235e+00 4.8270547795090546e-01
      -3.8646466669067827e+00 -3.3168195616382872e+00
      5.9655911601606579e+00 -5.5185075954405649e-01
      -7.6123436388051047e-01 -2.0205074987662142e-01
      1.8822483111431251e-01 -2.3835965182820198e+00
      4.5667961672120533e-01 -1.8894310837015726e+00
      1.3025969547687983e+00 3.1040596987638958e-01
      -2.0658532039423303e+00 -2.1095250974486746e+00
      -2.2788374826952507e+00 -1.4640161761915996e-01
      -3.2127711231074513e-01 -4.8102463088972343e+00
      -3.1610635871162457e-01 2.6662764147000773e+00
      -2.0820883216510402e+00 -1.7522872794434878e+00
      4.0299859387741659e+00 1.4660738558545920e+00
      2.5769631781133312e-01 4.3313665561678254e-02
      -3.5060275704800046e+00 3.7667206597970924e+00
      -2.1801549327306056e+00 -1.1235701779206857e+00
      -5.3764286325786914e+00 -1.0549833845025585e+00
      3.9681695206717453e+00 5.6921457553028905e+00
      -7.5919153288233765e-01 2.9358941020217726e+00
      2.6967954503336040e+00 1.4521092688647306e+00
      1.4999440217514108e+00 7.2025431009865644e+00
      -6.9169980627472896e+00 -2.4308045684124266e+00
      5.8876801095223072e+00 -6.0817818875458607e-01
      -3.3929027487791421e+00 1.8362184168971414e+00
      1.2836156626240169e-01 2.3195694292481135e+00
      -1.4185871755117145e+00 4.9024016308686864e+00
      2.4654101182740682e+00 -4.5989034489820524e+00
      -3.2719420294456816e+00 -5.9030490834249409e+00
      -1.2166836988981211e+00 -8.6972666330180104e-01
      -3.2077511395750569e-01 -7.7549573222806623e-01
      2.0542111543711217e+00 -4.3960043510427544e+00
      -3.3376948338940275e+00 -3.2840715939766647e+00
      1.7112535671880971e+00 2.0777374808542661e+00
      1.7833093750757918e+00 2.9248083467480641e+00
      1.7638935912733418e+00 6.7337150626578879e-01
      -4.7310304702895012e+00 1.2034024308039510e+00
      1.0565819327377235e+00 -2.5770786632542277e+00
      4.7857808644359023e+00 8.5655176033518394e+00
      -1.0852159015455312e+00 -3.3623461378392889e+00
      3.8222126341649494e+00 -3.3422858685236507e+00
      4.3554729902376493e-01 -1.1835080864059433e+00
      -8.3871034154841215e+00 -3.8946008802812218e+00
      4.5692012896334306e+00 2.4840783755439827e-01
      2.2425085160045088e+00 -9.9300962182216235e-02
      1.5447342455179580e-01 -1.5368919038379589e+00
      1.0368958726417887e+00 1.5512466178422373e+00
      1.1027113534000013e+00 -6.3723453442151872e+00
      -7.6117270456038433e-01 -9.0560816603071481e-01
      -1.0535684799383513e+00 7.2888074603182262e-01
      -2.7021295765993109e-01 -3.7707035670233733e+00
      -5.6386166865160110e+00 -4.5588107416034642e+00
      -8.6941951243243454e-01 1.7316470837418811e+00
      1.2630617273663534e+00 -5.2872897005209563e+00
      -1.9624088794211940e+00 -1.0575017778564868e+00
      -1.1413476424834406e+00 7.4320599279130539e-02
      -8.1888910683563161e+00 -3.6943886963971817e+00
      -1.1274420161455647e+00 -5.6920229449694224e+00
      3.5599409729623277e+00 -4.2783988868786471e-01
      3.7435420586506081e+00 -1.1766001961489774e+00
      -2.2338817181115792e-01 7.1325042934151766e+00
      3.5797280183972875e+00 -1.4022937781033959e+00
      7.3387315281388643e+00 1.5198995711257939e+00
      -7.3019136618298068e+00 2.5012195617748167e-01
      4.0926377255820473e-01 5.3058436055111580e-01
      -6.9020048199888206e-01 -4.9484970034303215e+00
      -4.9941401469363447e+00 8.5104444534479562e-01
      9.4499404983513136e-01 2.3104213778782983e+00
      -7.2147600760345725e+00 4.3432710794665486e+00
      7.6377865204589579e-01 3.5440425461734186e+00
      -9.8913785204083463e-02 -6.8373183769501589e-01
      -6.6016163412198769e-01 1.5298696079700831e+00
      2.1737474882744174e+00 -1.4677473438642656e+00
      2.0767969357545870e+00 -7.4402839282295368e+00
      -1.6876960696025525e+00 3.6231178456103743e+00
      -8.5930748447972938e-01 -4.8645347664995047e+00
      -1.0211197757621919e+00 1.0735294295682176e+00
      6.7455545164411679e-01 1.9019431051871005e+00
      4.3726161011299780e+00 -4.0583199412223268e+00
      1.1019553018303943e+00 -3.3078796401982284e+00
      2.0261415218783112e+00 7.5449667513862473e-01
      -5.3814645165002406e-01 -3.9976376094447126e+00
      -5.9255884049334071e+00 3.9504700473922498e+00
      -4.0513057719538290e+00 -1.0365666510534513e-01
      2.1981738358306094e-01 2.1283403433312427e+00
      7.1780827420248672e-01 -6.4991603071359769e+00
      7.9367944971227067e-01 -7.7097014305957090e-01
      -6.7348799956357253e-01 6.5585530703503503e+00
      1.0972839077874093e+00 2.6659129972390887e+00
      -2.9567773693133409e-01 -1.8924437748518881e+00
      -8.3430394237600380e-01 -3.9362307128202492e+00
      4.1581900208268721e+00 5.0940059682573100e+00
      2.0701950213958661e-01 -4.1687054853191832e+00
      -3.9904893159115948e+00 1.4776009767684675e+00
      -2.5763710427499356e+00 2.0289890871479357e+00
      8.3910629794341951e-01 3.9190231730187572e+00
      2.4106490980594102e+00 3.7589006865469893e-01
      9.9025414563137071e-01 2.8377328443021494e+00
      3.7799214835398676e+00 4.8219580329666289e+00
      -5.8140270534698919e+00 -1.2481851499923595e+00
      6.0201571831582212e+00 -4.9642823874944559e+00
      3.3103204324592048e+00 -3.3177590146995883e+00
      -5.7236341774484405e+00 1.1249080493342871e+00
      -1.1522425338499511e+00 -4.5740169545879000e-01
      4.7698125487716077e+00 2.7256532712160357e+00
      -7.2592446236695835e-02 1.7607012423943373e+00
      1.1897620990427797e+00 -2.8128803496039634e+00
      1.2950890522920633e+00 -3.8871482468953045e+00
      -2.0033771759031040e+00 1.2701141994242129e+00
      -1.9130564671436201e+00 -2.0642414348367195e+00
      3.6590405233958852e-02 -6.4590683800344868e+00
      -8.7670855220039445e-01 -4.2908033233584419e-01
      8.0534760763787600e-02 -2.2144088969903790e+00
      -7.9028729661613575e+00 1.2476457095473115e-01
      -2.9548743697753354e-02 -1.7324489124999590e-01
      1.1605033968759881e+00 8.0994029027397989e+00
      -5.1206665167757182e-01 -1.6731558070995103e+00
      -2.8122499909863117e+00 5.5471882228127773e+00
      -7.0089039751049553e-01 2.1804022473808975e+00
      -1.9998968690784384e+00 6.3922667043353396e+00
      4.0326481367219493e+00 -3.9443554154171681e-02
      1.8088581254204175e+00 1.6476664599858728e+00
      -1.5278257565884739e+00 9.5916214584997794e-01
      9.3183794522534025e-01 -1.3499847366579154e-01
      1.3511630733821263e+00 1.0199209050152953e+00
      5.1875565307727178e-01 5.2167745567540447e+00
      1.0570095330365192e+00 -2.0087322382211594e+00
      5.7299302025524723e-01 -8.7798102711610171e-01
      8.4528536221073625e-01 -1.1434460565392377e+00
      -1.7804675185899881e+00 3.4867727134335480e-01
      3.7592555872216804e-01 3.1601564658621306e-01
      -3.9037181923550035e+00 9.4365542906887445e-01
      -2.8766215542912437e+00 9.4927258234238709e-01
      -2.8771178956515571e+00 2.0770686726263832e+00
      -3.2763546900051022e-01 2.2931821466932986e-01
      2.1275964847797426e+00 3.3710295811865709e-01
      -7.8250226409033641e-01 2.1504626486623235e+00
      1.2001909187525199e+00 5.0996798346469774e-01
      1.9308126013115776e-01 6.2310175654540156e-01
      1.4979369435030891e+00 3.4441893566270680e+00
      -3.2078986005990753e-02 2.9607590166721465e-01
      -1.6154903871284609e-01 -2.2095686231482972e-01
      8.2842462220518032e-01 2.0096697536278127e-01
      7.2498088261996074e-01 -6.2162130882938794e-02
      3.1703245187460860e-01 2.6404576060152496e+00
      8.8715810345739121e-01 -4.4786349011142662e-01
      8.8068845776596594e-01 3.2922032286740586e+00
      3.4821301558195472e-01 2.1117070030749923e+00
      -1.6792372449599364e+00 -5.2760912219715461e-01
      2.7188782063219331e-02 -1.0916546775444251e+00
      2.9876053403450431e-01 -1.0382247031985703e+00
      3.2766293222972157e-02 -3.2846478786036979e+00
      -1.2261557090355522e+00 2.1716496288060574e-01
      -1.0968912083701057e+00 1.1299067160260436e+00
      1.9194572995700593e-01 1.1793884918333244e+00
      3.6081043134801094e+00 -8.6606488587972108e-01
      3.9675227505122779e-01 -1.1690499401859240e+00
      2.1338623914366783e+00 -1.2753532646316212e-01
      -3.0739487330121769e+00 -2.2791980467954192e+00
      1.7834099809571931e+00 5.0085449277521099e-01
      6.6502330721450731e-01 -4.2052042927869993e-01
      3.7627427921898695e+00 1.6851673583604425e+00
      -4.5034543460017701e-01 -2.1692377474643441e+00
      9.1902017128597124e-01 2.5802268184735605e-01
      2.3692285241389701e+00 8.7033769129818292e-02
      2.9714135462963371e+00 -1.0732356633437545e+00
      2.4833965062505770e+00 1.1534643860469935e+00
      5.5888854170994329e-01 1.9822389474253150e+00
      -4.6975331021221551e+00 -1.3378111648582707e+00
      -1.6281411085391999e+00 -2.1133188282920421e+00
      1.9820786206087908e+00 -2.6476677726107640e+00
      -2.2042432310231712e+00 8.1297912723378399e-02
      -1.2835278862060792e-03 -1.2791941255496113e+00
      -1.0278460783952239e+00 -1.8092821385242799e+00
      3.7379743763525297e-01 2.6293209904100232e+00
      1.4009954725910541e+00 -5.3344305114719937e-01
      2.2668549368117636e+00 4.2765957102879122e-02
      1.1834534200874371e+00 5.9343523867343573e-01
      -1.4670961803003875e+00 -9.1411805742508501e-01
      6.8471154089580577e-01 3.3783314142760439e+00
      1.1577257119688538e+00 2.3966080549064954e+00
      4.0609393415890036e+00 -3.2725362304437344e-01
      -1.8862738784136441e+00 2.0956127042891119e+00
      2.4818047142360382e+00 -2.8093050679640585e+00
      8.2485582096467092e-01 8.3759563859883279e-01
      1.9817827990611283e+00 2.6222935568753469e-01
      5.4264271905813566e-01 3.6895560662671762e+00
      5.7746094160690198e-01 -1.6164072574706789e+00
      1.2116758165667272e+00 -2.6535998496514090e+00
      -1.4545741089700097e+00 -3.8778899593431787e-01
      5.2396870675395946e-01 -2.4394065565006078e+00
      -4.5459457720726970e-01 2.8828622193952658e+00
      3.3249381737194711e-01 -7.7589849975089470e-02
      1.8598883184305068e+00 8.3498091854870793e-01
      5.1808261292411273e-01 2.5056172663152276e+00
      3.6224098396692255e+00 -9.4212841527362778e-01
      -1.6034097241745386e+00 8.3102747022890411e-01
      -7.1932132022766506e+00 9.8410071747286387e-01
      -1.0247063389490556e+00 -5.2580352041615619e-01
      1.8807763274757533e-01 -7.4634069574219930e-01
      -1.0387104983505246e+00 2.0704700956845663e+00
      1.5146777352729959e+00 2.4730445071869936e-01
      -1.3848105827305295e+00 -2.5598628421533061e+00
      3.5183041901235170e+00 -4.0542373534280735e-01
      1.8209712996573895e+00 1.9007894227904825e+00
      5.6357113366196787e-01 5.1413529331536956e-01
      1.7576878149672801e+00 -1.5867532742296804e+00
      -1.4772668600991155e+00 1.9587355934704600e+00
      -3.1683460076825614e+00 1.7006521275333046e+00
      -1.8071408979540358e+00 8.6490368092253911e-02
      -2.9299434732191365e-01 -2.5675097853859685e+00
      2.9899374027590544e+00 4.6932098727779792e+00
      3.9689667712011425e+00 -9.3604609745933443e-01
      -4.3979347748688069e-01 -3.8064360969623436e+00
      -6.3506215267237154e-01 2.2524217692672384e+00
      6.1020334457902914e+00 6.3351199610190276e+00
      -4.7061364616042445e+00 3.9790339861749566e+00
      -3.7654344275064289e+00 3.6210775292573338e-01
      2.6619820994732506e+00 3.0380570677011045e+00
      -4.3752114101222628e-01 1.1636769579178685e+00
      -7.4783481164316958e+00 4.4381500617206147e+00
      6.1295462658904110e-01 -3.8185155380751568e-01
      7.0770641460533079e-01 -4.2737745348508493e+00
      7.2369432969162997e+00 5.9412031834334064e-03
      1.2150012295071697e+00 1.6068927855557857e+00
      6.5868791850244732e-02 4.3923371249861409e+00
      2.4347037513577221e+00 2.4212218824917153e+00
      -1.0774598265616526e+00 1.3661042087038282e+00
      -2.1326532634666875e+00 7.8990987468199214e-01
      -1.9778047269682739e+00 -4.4455773864048398e+00
      -3.6514459847283670e-01 -4.6631027734342405e+00
      -4.1234563500754335e+00 4.0767576496405482e+00
      -2.5671092697989035e+00 7.2907851918972844e-01
      -1.5242571359334394e+00 -3.3114945225180232e+00
      -2.4345553254355838e+00 -5.0059793391556928e+00
      -9.0558613628532303e-01 5.3000416501016838e+00
      -2.3402624418764546e+00 5.7450160450978762e+00
      -6.8861394467002568e-01 8.5705686850069063e-01
      1.9092267039346813e+00 7.9058583520792149e+00
      2.3474157491022125e+00 1.0853324262554467e+00
      3.2540766674660651e+00 1.3896236625766218e+00
      4.6348957947149003e+00 -5.2495051194939473e+00
      -1.1480229966499724e+00 -2.4082749765755751e+00
      1.7115330225559298e+00 -1.4779674490702369e-01
      4.5301513755950656e-01 7.6292970372141733e-01
      -2.3621771238370257e-01 5.1591279477027880e+00
      -7.5660899564383421e-01 2.1647446447871488e+00
      1.5689575973763852e+00 -4.6097212177206126e+00
      1.4439187576490582e+00 3.2109868079279280e-01
      -9.9496836654071785e-01 -6.8721551442639750e-02
      -4.7517040085071882e-01 -2.8272807663431743e+00
      -1.2296175813911778e+00 1.6235914889306136e+00
      -5.3481944946180535e+00 2.0702899870771070e+00
      -9.8297814164870134e-01 -1.8265503662599067e+00
      -2.4762792333906805e+00 1.2124992603663962e+00
      6.5774980429961536e+00 -4.0896514821195558e+00
      -4.1783939117952649e+00 3.8489550408407258e-01
      4.1347315753900524e+00 3.0731651750769964e+00
      2.4708291074940090e+00 1.0835830082657130e+00
      -2.6840489297715791e+00 -1.3381371775681727e+00
      3.2577535105226239e+00 6.0781025216686873e+00
      8.9067483237710814e+00 -1.8717876843371761e+00
      1.4585571855647379e+00 7.1775044958594911e+00
      -6.4759614564487711e+00 9.9042301999827123e-02
      -9.6152854055926862e-01 -3.0471879282713683e+00
      -5.8751514282583095e-01 6.1570601216147669e-01
      5.0247184013374036e-01 -1.5255780981211973e+00
      -2.4436593911262565e+00 -2.4653924735957403e-01
      3.8860878235840728e+00 -4.1706089706125162e+00
      -2.1566918251544380e+00 -7.4945010985156235e-01
      1.4513677394101246e-01 -3.2004206573376872e+00
      -2.7302377721932114e-01 -2.1357632981891500e-01
      3.9581671693333047e+00 2.9630267820899001e+00
      -6.0566278985736037e+00 -6.2855667564706943e+00
      2.6486318136487466e+00 -3.0996882502066486e-01
      -3.7439229887792962e+00 -7.9929955695224981e+00
      -1.1478877196844330e-01 -1.4658791627877386e+00
      -8.6664124934612974e-01 -1.9328577263759117e+00
      7.7897649889703944e+00 8.2349191047204529e-01
      -1.4670226353498086e+00 -4.1143134666240213e+00
      4.3006580749721799e+00 -2.8848094395460286e+00
      4.5665233433201839e+00 -1.4005340717973016e+00
      -2.9427106078261405e+00 3.0466883456404714e+00
      -4.0467987669203707e+00 3.2515345894375902e-01
      -2.8218078651361844e-01 1.0321323604013835e+00
      2.7192028765121462e-01 -7.7268469960679411e+00
      2.8780187553293684e+00 -3.2021725568568034e+00
      -2.1254740056248811e+00 -1.7903329074128080e+00
      1.8685368103654487e+00 7.1643049790513169e+00
      -4.6809881031552369e-01 1.2585551870661460e+00
      -1.8194179456158069e-01 -2.7904050558341376e+00
      4.2330003356863466e-01 3.8743065130583587e-01
      -3.2233473459008080e+00 2.8835923937714014e-01
      -2.4912633181884387e+00 4.7104675461374917e-01
      -1.9305126263284174e+00 1.8503746357435302e-01
      -5.3351394457756429e+00 1.1376689514853142e+00
      -1.8362570281779196e+00 3.8988494266336042e+00
      -3.5993952437157852e+00 -1.7966588717484737e+00
      3.9406640255019307e+00 -9.0717673041310853e-01
      2.4892992595508150e+00 -1.3541278308876235e+00
      4.5237213943215560e+00 -4.0279514586271210e+00
      -4.7911053272419224e+00 4.1841800689103376e-01
      -4.2498956751537840e+00 -2.5707093715503921e+00
      1.5587197513921036e+00 -1.5373475039755527e-01
      -9.3972607169923772e-01 -1.0722245156616892e+00
      2.2144635474087770e-01 -1.3437071304565973e+00
      -2.1448941094056431e+00 1.1162144487759771e+00
      2.1075671954996950e-02 -1.6567051106551332e+00
      -6.3656861937642450e-01 6.1071623446840775e+00
      -1.1693577574588907e+00 4.9242068227664246e+00
      2.7045690216420409e-01 -2.8871855423108848e+00
      1.9196005452553746e+00 1.6628452974002712e+00
      -1.8767316380443724e+00 1.3102532337757296e+00
      -3.2896471498011874e+00 -1.8626454246228765e+00
      -1.4569200131871445e+00 5.2341525089793048e+00
      4.4464695256975206e+00 4.9339865749684891e-01
      -1.9637090953255543e+00 -1.9585283851531450e+00
      -1.3975304171254987e+00 3.6768544253010380e+00
      1.3010781149120854e+00 -4.2968110946460945e+00
      1.9800568464517270e+00 -3.5030545302449325e+00
      2.2379153419684625e+00 -1.2431108960894113e+00
      -6.1402164161630814e+00 1.1573945282869142e+00
      -2.2921691392725481e+00 -2.1917048258965131e+00
      1.3985177413412866e+00 9.3724843235093905e-02
      -5.2126112584891648e-01 -2.0399294423792353e+00
      -1.1171646970889586e-01 7.5155150942273130e-01
      1.0641074611443199e-01 6.7852506176000160e-01
      -2.5638890533253050e-01 -1.7462457187030203e+00
      -3.9062628949902467e-01 8.0759707291637657e+00
      -5.7178240374831535e-01 1.9965333374146486e+00
      8.0114275605172869e-01 -4.0938655790989378e+00
      -2.1411631580181627e+00 -2.6249537791730995e+00
      8.5638434410592168e-01 7.1884002267327873e-01
      -3.5926016014597377e+00 -2.2007737303460573e+00
      2.0774737541602284e+00 3.9724761615752144e+00
      2.8319015534977061e+00 6.7128600213006973e-01
      -2.4499275634249262e-02 -4.2556904895121228e+00
      -2.2247574732910822e+00 8.8830316389320907e-01
      4.0708628630775928e-01 -2.4520053272958564e+00
      -2.4213248739648607e-01 -4.4571540642017134e-02
      1.0204332960414428e-01 -2.1163490068095396e+00
      -2.9073503832852263e+00 3.1519025225552575e+00
      -4.5408451793880172e-01 -1.5119750695563303e+00
      3.0512095915247937e+00 -7.6853481374063048e-01
      -4.8793226437642795e-01 2.6364861761284192e-01
      1.0202204795587089e+00 -1.4260916762304183e+00
      -8.6456222951703538e-03 4.3954122941589677e+00
      2.9685875352683078e-01 -2.2024574594933926e+00
      -1.3048851209386585e+00 -5.4221189585608087e-01
      3.5742497065239043e-03 -3.5234437061833662e-01
      4.9005943641366029e-01 -1.3649942643461097e+00
      -2.7825637200053566e-01 -2.7758273168247611e+00
      -2.8598024128851529e-01 7.3246790165454834e-01
      -4.9780136626679800e-01 2.3221031319335226e+00
      2.1075981821531213e+00 3.0048050051018571e-01
      -1.8816583149680359e+00 -2.2584963687608077e+00
      -7.9167538238803140e-02 -7.9622591251650432e-01
      -3.0704528297454881e-01 -1.6970791803782614e+00
      1.9816143174031742e-02 1.9484398687477936e-01
      2.2554962102556630e-01 1.0351228646144250e+00
      1.2391677957788034e+00 -8.2571933644499251e-01
      -1.0315581227176177e-01 3.3220834380498787e-01
      -2.6941370937801188e+00 -7.6654427678779791e-01
      1.1748900490251986e+00 2.1984175534671957e-01
      3.4933444055692975e-01 3.2202672231681462e-01
      4.7155010911898232e-01 -3.6163502893624744e-01
      -2.0736393286352510e+00 -4.3388921696120519e-01
      6.7473783703468682e-01 1.3282638681196131e+00
      -1.7751357637649654e+00 2.9023853479743456e+00
      -1.9675794539463198e+00 -2.5226212258970642e+00
      2.7458488007412920e+00 -4.7483845573920985e-01
      1.3366129606511652e+00 -1.2312651258632636e+00
      -1.3636025728404050e-01 7.7025686356338241e-01
      2.2530590800371025e-01 -7.4315854570185247e-01
      1.4669699183683103e+00 -6.0221952405359069e-01
      3.4317863638268237e-01 -1.1590043669815735e+00
      1.7188747416877177e+00 8.0528692651017275e-01
      3.5755622330599270e+00 1.8387001594493659e+00
      2.7021648540751980e-01 -9.0333461623820843e-01
      8.0038999150718937e-01 3.0976995554336315e+00
      2.1036832328497250e+00 1.1985979224517722e+00
      9.4430715607218030e-01 2.2637562049921178e-01
      -1.6057975147619545e+00 2.0660139450582355e+00
      3.3589941304801957e-01 -3.2856786011593342e+00
      1.0395008926868394e+00 -9.6167648302187103e-01
      1.1836222754904022e+00 -1.1664131634367071e-01
      -5.8858225902668804e-01 8.3372349993488970e-02
      1.4602107947538553e-01 3.0917778513055694e-01
      4.1642901372180887e+00 6.8302012557910963e-01
      -2.3683135996811369e+00 3.5667598150570773e-02
      8.9843997281401233e-01 3.8378159560623759e-01
      1.5156547804986706e+00 -1.1291047637650593e+00
      -9.2202828259419312e-01 1.6682812494418875e+00
      -2.1815696127975781e+00 -1.7375536560348215e-01
      2.1123213032250598e+00 -5.2609000506465309e+00
      4.7786416519725954e+00 -1.7746773979286943e+00
      -1.7814917125712342e+00 -6.0511109925978956e-01
      -3.1024913190470764e+00 1.9387889786919918e+00
      1.4309012836127248e+00 -4.3195029287258963e-01
      1.5276081940270654e+00 1.3961621616349256e+00
